tree
version=v4
num_class=1
num_tree_per_iteration=1
label_index=0
max_feature_idx=78
objective=regression
feature_names=Column_0 Column_1 Column_2 Column_3 Column_4 Column_5 Column_6 Column_7 Column_8 Column_9 Column_10 Column_11 Column_12 Column_13 Column_14 Column_15 Column_16 Column_17 Column_18 Column_19 Column_20 Column_21 Column_22 Column_23 Column_24 Column_25 Column_26 Column_27 Column_28 Column_29 Column_30 Column_31 Column_32 Column_33 Column_34 Column_35 Column_36 Column_37 Column_38 Column_39 Column_40 Column_41 Column_42 Column_43 Column_44 Column_45 Column_46 Column_47 Column_48 Column_49 Column_50 Column_51 Column_52 Column_53 Column_54 Column_55 Column_56 Column_57 Column_58 Column_59 Column_60 Column_61 Column_62 Column_63 Column_64 Column_65 Column_66 Column_67 Column_68 Column_69 Column_70 Column_71 Column_72 Column_73 Column_74 Column_75 Column_76 Column_77 Column_78
feature_infos=[-1.5270385736961576:5.6296976889239998] [-1.1840651477626818:39.672509986546842] [-1.4074717234412932:29.677491186297161] [-1.3667275997196211:1.3625732323774893] [-0.8867388866918704:2.6674209651548777] [-2.7095812506209094:4.2175061579869428] [-3.6964893822734224:4.5245959254922505] [-2.5745496681387086:3.9797441962777924] [-1.6384935458445162:6.2600174493571892] [-2.5733880169951475:2.0320218235660787] [-2.3247664674924335:8.1236931027400896] [-4.900416339937629:66.695580764453538] [-6.4958075913685391:49.892419485766112] [-6.6660434293724817:7.6708753773052551] [-4.2243212254745233:5.8008978882315496] [-12.702264487618287:4.6531712242397694] [-20.81011773251679:5.6446818739897973] [-14.493936316740538:8.16593939811235] [-9.2242233283577626:18.248411535237494] [-14.487396571982297:6.520064000005064] [-13.087732409330163:8.1596117147983804] [-0.52929391415252813:1177.38056546403] [-12.554346333937339:11.986792267364166] [-6.1840126285278716:26.204748364560988] [-7.3711118949485508:25.177378747307529] [-18.351992303228421:5.7182236639866089] [-15.776397175193905:34.389930055753112] [-19.449696741983235:41.24828030519329] [-13.550888606379527:44.073772509945115] [-8.2774336133621436:33.002127936898248] [-13.145653119312705:10.482777383239767] [-6.4752781815746836:19.602772521630541] [-6.4462387716582592:26.363227416385893] [-19.216366862079077:5.2173581464605379] [-11.80172084592356:36.009687743621001] [-14.549576112832231:43.191064690836129] [-14.189132300450451:32.969907768737386] [-8.0273433236959111:34.556520468523878] [-1.2020458989279805:3.634556406602564] [-5.4537138856887957:3.7032594789064044] [-5.8508157905728018:5.0520940608236193] [-5.3060600806933342:3.5187080882941641] [-6.1660952748070095:8.5297322107101117] [-3.5064296284785756:3.5171204276150134] [-10.504856713388843:3.1773224940245961] [-3.7398267151494493:2.4026910615767512] [-9.8600932757485307:4.9681521218183597] [-6.8674077606257242:2.2829533064582428] [-4.3705520354566172:1.4529159426939815] [-6.8643091480111931:4.1918009376480452] [-7.2035945777501738:2.0614608292028329] [-10.136260807738919:19.082511178166197] [-5.8897957792741229:12.025414692546361] [-11.340802231167515:20.110799283192442] [-8.7901874782913136:6.9728039214225737] [-5.3183668963488975:34.261725686402379] [-10.563301775195363:9.5167955124102992] [-12.815757734978595:21.575129255663487] [-4.3920496636676427:9.5125014812922206] [-9.1648695226249828:36.75642871260731] [-4.0851059108978296:13.104183295549323] [-3.5724176072497102:6.6253152651469867] [-1.9024452086277157:19.855561577568992] [-8.1491072920402807:4.2164796568001677] [-5.0689854640420933:38.737100861861165] [-9.8141389645234369:7.5119707715704882] [0:1] [0:1] [0:1] [0:1] [0:1] [0:1] [0:1] [0:1] [0:1] none [0:1] [12.336479809829452:15.06621849041389] [11.042294382546105:15.438649583999037]
tree_sizes=2700 2867 2864 2868 2860 2867 2872 2873 2866 2876 2862 2881 2870 2878 2880 2894 2882 2879 2887 2898 2888 2901 2887 2892 2924 2895 2908 2905 2900 2900 2888 2908 2910 2926 2904 2931 2919 2933 2914 2935 2928 2934 2946 2933 2941 2934 2950 2936 2937 2961 2939 2943 2947 2941 2944 2966 2991 2949 2935 2958 2957 2953 2952 2957 2961 2985 2949 2951 2976 2963 2953 2998 2980 2972 2925 2960 2973 2972 2962 2976 2961 2962 2988 2951 2953 2978 2982 2973 2967 2981 2956 2926 2968 2949 2967 2996 2983 2947 2969 2981 2959 2968 2994 2958 2931 2946 2946 2956 2964 2961 2951 2935 2925 2964 2957 2943 2951 2959 2939 2955 2919 2940 2937 2979 2959 2948 2932 2970 2924 2941 2938 2936 2945 2936 2915 2923 2969 2937 2933 2950 2960 2921 2937 2961 2939 2938 2950 2946 2908 2923 2973 2942 2938 2950 2964 2925 2959 2977 2965 2934 2952 2946 2951 2918 2919 2958 2951 2932 2938 2948 2922 2928 2939 2935 2932 2971 2939 2952 2952 2936 2958 2946 2943 2956 2965 2931 2928 2933 2947 2978 2947 2982 2977 2961 2941 2947 2961 2939 2918 2975 2982 2942 2949 2934 2933 2946 2949 2945 2948 2945 2954 2938 2940 2946 2921 2955 2959 2947 2989 2959 2932 2979 2949 2963 2956 2948 2952 2931 2975 2961 2960 2943 2938 2945 2943 2939 2988 2969 2926 2948 2971 2950 2960 2976 2963 2951 2990 2967 2952 2953 2981 2949 2946 2960 2957 2952 2964 2968 2950 2969 2951 2960 2937 2924 2947 2940 2928 2982 2954 2969 2949 2963 2956 2933 2958 2945 2954 2995 2929 2974 2954 2956 2960 2981 2944 2974 2954 2949 2984 2953 2951 2950 2968 2960 2993 2959 2956 2952 2938 2946 2942 2954 2939 2942 2963 2954 2958 2970 2956 2945 2972 2957 2949 2966 2949 2950 2930 2969 2950 2955 2948 2941 2957 2948 2936 2945 2951 2969 2959 2973 2954 2947 2961 2937 2960 2967 2951 2951 2957 2969 2954 2962 2953 2974 2960 2940 2961 2952 2969 2957 2953 2962 2997 2948 2971 2969 2987 2955 2943 2964 2968 2965 2960 2946 2988 2990 2963 2969 2986 2955 2937 2961 2944 2968 2963 2956 2946 2960 2957 2950 2987 2951 2958 2954 2949 2964 2954 2951 2971 2974 2961 2960 2966 2961 2969 2977 2971 2980 2947 2974 2948 2955 2942 2976 2969 2993 2950 2962 2964 2965 2973 2975 2952 2965 2960 2989 2955 2956 2982 2983 2976 2965 2963 2961 2949 2958 2947 2973 2982 2939 2956 2961 2960 2984 2970 2952 2953 2965 2952 2943 2988 2948 2936 2988 2962 2937 2958 2974 2989 2961 2957 2968 2965 2980 2938 2961 2972 2970 2968 2962 2975 2966 2983 2967 2945 2955 2992 2987 2955 2955 2951 2962 2980 2963 2957 2959 2978 2962

Tree=0
num_leaves=31
num_cat=0
split_feature=5 55 15 0 15 15 15 15 0 20 10 39 10 7 14 15 15 51 5 0 55 14 77 18 51 0 10 20 20 53
split_gain=2059.72 1058.72 425.182 254.395 102.027 95.7896 71.4702 53.2863 39.0616 35.5246 27.3783 23.0952 22.5157 20.2942 15.9985 15.7197 15.0063 13.968 11.0582 9.66051 7.60836 7.35721 7.30921 6.84462 6.58798 6.54557 6.35277 6.2841 6.06569 5.92025
threshold=-0.17360688210004174 1.3560593589143382 -0.78995697621701322 0.32384149422284858 -1.9109877978800716 -0.07965370016198943 -0.15485581654795422 -1.9844124381088828 1.0641935213904512 -0.22688926482065266 -0.058887403942882784 -0.49568518054750421 2.5786956088176902 0.10881897696299728 -0.17637805477829979 -0.059687020951768456 -5.3802527620832912 -0.90156307976951844 0.81365684823831241 -0.91007855105648872 0.68439190814388529 0.1136139711767022 12.88755575131213 -1.9540768864943197 -0.49575338669198071 -0.41651053294475388 0.63763303215774292 -0.83721290522718383 -0.57675282560038721 3.7404768555155412
decision_type=2 2 2 2 2 2 2 2 2 2 2 2 2 2 2 2 2 2 2 2 2 2 2 2 2 2 2 2 2 2
left_child=2 3 7 5 12 9 -4 16 11 27 19 -5 -3 14 -7 29 -1 -10 -11 -8 -21 -12 -18 -19 -15 -26 -13 -2 -9 -6
right_child=1 4 6 8 15 13 10 28 17 18 21 26 -14 24 -16 -17 22 23 -20 20 -22 -23 -24 -25 25 -27 -28 -29 -30 -31
leaf_value=12.872781827155153 13.024115796263146 13.065415140341557 12.939224085160969 12.994792245011656 13.041198100012441 12.98800396638236 12.967102432436002 12.913908586022648 12.974876894549558 12.99361810446743 12.969566274564137 12.960798810693156 13.095068265923205 13.00259266201318 12.974599123805188 13.018858223722086 12.895174815182507 12.930965880111636 13.0090627253986 12.957410317641028 12.945420697456848 12.991784284175665 12.923456893864477 12.94802034062851 12.998253410487015 12.984216894060047 12.972936175052208 13.009335987498057 12.926335396306314 13.062137825956244
leaf_weight=77 91 114 723 71 157 321 166 271 35 950 81 365 146 97 726 75 265 99 132 403 197 69 25 145 115 299 153 343 154 43
leaf_count=77 91 114 723 71 157 321 166 271 35 950 81 365 146 97 726 75 265 99 132 403 197 69 25 145 115 299 153 343 154 43
internal_value=12.9735 12.9936 12.9364 12.9847 13.0596 12.9914 12.951 12.9064 12.9607 13.0003 12.9603 12.968 13.0821 12.9827 12.9787 13.0384 12.8924 12.9453 12.9955 12.9564 12.9535 12.9798 12.8976 12.9411 12.9909 12.9881 12.9644 13.0124 12.9184 13.0457
internal_weight=6908 4477 2431 3942 535 3074 1639 792 868 1516 916 589 260 1558 1047 275 367 279 1082 766 600 150 290 244 511 414 518 434 425 200
internal_count=6908 4477 2431 3942 535 3074 1639 792 868 1516 916 589 260 1558 1047 275 367 279 1082 766 600 150 290 244 511 414 518 434 425 200
is_linear=0
shrinkage=1


Tree=1
num_leaves=31
num_cat=0
split_feature=5 55 15 0 15 15 15 15 0 20 10 5 39 7 14 15 15 51 5 0 14 77 55 18 10 51 0 78 18 20
split_gain=1858.89 955.493 383.726 229.592 92.0793 86.4501 64.5018 48.0909 35.2531 32.061 24.7089 20.9878 20.3437 18.3156 14.4386 14.1871 13.5432 12.6061 10.0012 8.75444 6.63988 6.59656 6.45785 6.17727 6.10628 5.94565 5.90738 5.89384 5.78356 5.6714
threshold=-0.17360688210004174 1.3560593589143382 -0.78995697621701322 0.32384149422284858 -1.9109877978800716 -0.07965370016198943 -0.15485581654795422 -1.9844124381088828 1.0641935213904512 -0.22688926482065266 -0.058887403942882784 0.42747715818060389 -3.4011766684378029 0.10881897696299728 -0.17637805477829979 -0.059687020951768456 -5.3802527620832912 -0.90156307976951844 0.77569335778033188 -0.66329454200062132 0.1136139711767022 12.88755575131213 0.53969515327769102 -1.9540768864943197 0.63763303215774292 -0.49575338669198071 -0.41651053294475388 12.187868835561675 -0.26644197018159987 -0.83721290522718383
decision_type=2 2 2 2 2 2 2 2 2 2 2 2 2 2 2 2 2 2 2 2 2 2 2 2 2 2 2 2 2 2
left_child=2 3 7 5 12 9 27 16 11 29 19 24 -3 14 -7 -6 -1 -10 28 -8 -12 -18 -21 -19 -5 -15 -27 -4 -11 -2
right_child=1 4 6 8 15 13 10 -9 17 18 20 -13 -14 25 -16 -17 21 23 -20 22 -22 -23 -24 -25 -26 26 -28 -29 -30 -31
leaf_value=-0.095674157607090943 0.048093113663432364 0.1158958587847965 -0.041160563432062286 -0.01246641009611649 0.068598239064216623 0.013786875767592702 -0.0094382640232528459 -0.052325990200261865 0.0013161580304482156 0.025478220913588763 -0.0037289314776842979 0.01881098907110812 0.087803594742791133 0.027646137017411056 0.0010522754700227766 0.043098421713026865 -0.07440082070962438 -0.040399306790545736 0.033033826967485906 -0.015260702910622197 0.017378177858241226 -0.047532844040542845 -0.027046985876553017 -0.024197568071299587 -0.00052752574689661957 0.023523848160453466 0.010189157139266963 -0.030186069801772537 0.016615583786103769 0.034052296421618229
leaf_weight=77 91 142 156 357 200 321 294 425 35 252 81 79 118 97 726 75 265 99 147 265 69 25 207 145 153 115 299 567 683 343
leaf_count=77 91 142 156 357 200 321 294 425 35 252 81 79 118 97 726 75 265 99 147 265 69 25 207 145 153 115 299 567 683 343
internal_value=-9.09583e-11 0.0191126 -0.0351983 0.010603 0.0818132 0.0170151 -0.0213894 -0.0637752 -0.0121051 0.0255154 -0.0125771 -0.00517004 0.103146 0.00874391 0.00495658 0.0616437 -0.0770339 -0.0267459 0.0209103 -0.016211 0.00598034 -0.0720846 -0.0204297 -0.0307712 -0.00888474 0.0165039 0.0138932 -0.032554 0.0190042 0.0369963
internal_weight=6908 4477 2431 3942 535 3074 1639 792 868 1516 916 589 260 1558 1047 275 367 279 1082 766 150 290 472 244 510 511 414 723 935 434
internal_count=6908 4477 2431 3942 535 3074 1639 792 868 1516 916 589 260 1558 1047 275 367 279 1082 766 150 290 472 244 510 511 414 723 935 434
is_linear=0
shrinkage=0.05


Tree=2
num_leaves=31
num_cat=0
split_feature=5 55 15 0 15 15 15 15 0 20 10 5 10 7 14 15 5 39 15 0 55 14 77 8 10 41 53 78 20 5
split_gain=1677.65 862.333 346.313 207.207 83.1015 78.0213 58.2129 43.402 31.8159 28.935 22.2998 18.9415 18.5785 16.5298 13.0309 12.8038 12.5062 11.3941 9.18265 8.14607 6.43033 5.99249 5.82298 5.55292 5.51092 5.38833 5.34302 5.31919 5.24027 4.57055
threshold=-0.17360688210004174 1.3560593589143382 -0.78995697621701322 0.32384149422284858 -1.9109877978800716 -0.07965370016198943 -0.15485581654795422 -1.9844124381088828 1.0641935213904512 -0.22688926482065266 -0.058887403942882784 0.42747715818060389 2.5786956088176902 0.10881897696299728 -0.17637805477829979 -0.059687020951768456 -2.2254470624765035 -0.15494439098082005 -0.25319865240628986 -0.91007855105648872 0.68439190814388529 0.1136139711767022 12.88755575131213 -0.68246338102605864 0.63763303215774292 -1.0277672812765926 3.7404768555155412 12.187868835561675 -0.68194339845089036 0.87143604264745766
decision_type=2 2 2 2 2 2 2 2 2 2 2 2 2 2 2 2 2 2 2 2 2 2 2 2 2 2 2 2 2 2
left_child=2 3 7 5 12 9 27 16 11 28 19 24 -3 14 -7 26 -1 -10 29 -8 -21 -12 -18 -9 -5 -15 -6 -4 -2 -11
right_child=1 4 6 8 15 13 10 23 17 18 21 -13 -14 25 -16 -17 22 -19 -20 20 -22 -23 -24 -25 -26 -27 -28 -29 -30 -31
leaf_value=-0.089740632011972632 0.042784076687451961 0.08286338249842326 -0.039102536272735168 -0.011843089947945905 0.06089139159317989 0.013097531980373592 -0.0055976680075996614 -0.054307857320405717 -0.0076096596778370447 0.022810584596705579 -0.0035424846218737927 0.01787043947643966 0.10979937012881449 0.027685138197097031 0.00099966157280349951 0.04094349940493703 -0.070344214340833239 -0.03114478972109291 0.015198606388509964 -0.014493585850283874 -0.025515994276416484 0.016509269005821451 -0.045500400544215856 -0.042605935562468937 -0.00050114968814811021 0.013483046624053344 0.080784126631049225 -0.028676766481963392 0.03119422080112504 0.037434341112772627
leaf_weight=87 148 114 156 357 157 321 166 258 68 488 81 79 146 79 726 75 254 211 534 403 197 69 26 167 153 432 43 567 286 60
leaf_count=87 148 114 156 357 157 321 166 258 68 488 81 79 146 79 726 75 254 211 534 403 197 69 26 167 153 432 43 567 286 60
internal_value=-9.3887e-11 0.018157 -0.0334384 0.0100729 0.0777225 0.0161643 -0.0203199 -0.0605865 -0.0114999 0.0242396 -0.0119482 -0.00491154 0.097989 0.00830672 0.00470875 0.0585616 -0.0731822 -0.0254086 0.0198648 -0.0154005 -0.0181126 0.00568132 -0.0680373 -0.0497097 -0.00844051 0.0156787 0.0651683 -0.0309263 0.0351465 0.0244117
internal_weight=6908 4477 2431 3942 535 3074 1639 792 868 1516 916 589 260 1558 1047 275 367 279 1082 766 600 150 280 425 510 511 200 723 434 548
internal_count=6908 4477 2431 3942 535 3074 1639 792 868 1516 916 589 260 1558 1047 275 367 279 1082 766 600 150 280 425 510 511 200 723 434 548
is_linear=0
shrinkage=0.05


Tree=3
num_leaves=31
num_cat=0
split_feature=5 55 15 0 15 15 15 15 0 20 10 39 5 10 15 14 15 51 15 0 41 77 18 55 77 20 20 17 14 78
split_gain=1514.32 779.996 309.932 191.52 74.9991 69.6521 51.5951 39.1703 29.1749 26.1139 18.139 17.1924 16.8373 16.0136 13.4378 11.8188 11.3948 10.4946 8.48529 7.38849 6.42646 5.9132 5.58768 5.41453 5.34589 5.23768 4.75433 4.75243 4.72639 4.67352
threshold=-0.22790280624337642 1.3560593589143382 -0.78995697621701322 0.32384149422284858 -1.9109877978800716 -0.07965370016198943 -0.15485581654795422 -1.9844124381088828 1.0641935213904512 -0.22688926482065266 -0.058887403942882784 -0.49568518054750421 2.9663537825111801 0.28212419528058108 -0.01506693588759633 -0.30975174668749889 -5.3802527620832912 -0.90156307976951844 -0.4433398661311348 -0.66329454200062132 -1.2181750656853743 13.172707724096556 -1.9540768864943197 0.53969515327769102 12.88755575131213 -0.5561384294850179 -0.83721290522718383 -0.14086049870115738 0.036131451382443357 12.187868835561675
decision_type=2 2 2 2 2 2 2 2 2 2 2 2 2 2 2 2 2 2 2 2 2 2 2 2 2 2 2 2 2 2
left_child=2 3 7 5 12 9 29 16 11 26 19 -5 -3 14 -7 -6 -1 -10 -11 -8 -17 -15 -19 -21 -18 -9 -2 -13 -12 -4
right_child=1 4 6 8 15 13 10 25 17 18 28 27 -14 21 -16 20 24 22 -20 23 -22 -23 -24 -25 -26 -27 -28 -29 -30 -31
leaf_value=-0.086621073004487278 0.043549254888689132 0.08286621542293815 -0.037147408723831175 0.018401669548221037 0.033372338334744685 0.01082582637387005 -0.0084084595590006236 -0.051156046307339692 0.0016308325888322933 0.025234593772896625 -0.0077559170559706059 -0.015442831759348189 0.10892563777811387 0.011414086231529647 0.00040273776674975257 0.064488269761204725 -0.067068414440694848 -0.036857760035329395 0.015790378752890185 -0.013772988595279321 0.04281240048862639 0.024997692874499731 -0.021670619654767694 -0.024565270392377166 -0.04288118062913418 -0.039388211895252621 0.030693670055956607 -0.0048238885417665571 0.011079396728988894 -0.027354032099464739
leaf_weight=77 91 158 156 71 49 594 294 283 35 353 51 147 102 167 645 184 265 99 729 265 42 154 156 207 25 142 343 372 96 556
leaf_count=77 91 158 156 71 49 594 294 283 35 353 51 147 102 167 645 184 265 99 729 265 42 154 156 207 25 142 343 372 96 556
internal_value=2.08834e-11 0.0171739 -0.0319106 0.00951099 0.0738364 0.0153953 -0.0194109 -0.0575572 -0.0110574 0.0230276 -0.0115431 -0.00467469 0.0930895 0.00797827 0.00539976 0.0556335 -0.0695231 -0.024043 0.0188715 -0.0146305 0.06046 0.0179308 -0.0275668 -0.018506 -0.0649833 -0.0472242 0.0333892 -0.00783157 0.0045447 -0.0294998
internal_weight=6908 4491 2417 3956 535 3076 1625 792 880 1516 913 590 260 1560 1239 275 367 290 1082 766 226 321 255 472 290 425 434 519 147 712
internal_count=6908 4491 2417 3956 535 3076 1625 792 880 1516 913 590 260 1560 1239 275 367 290 1082 766 226 321 255 472 290 425 434 519 147 712
is_linear=0
shrinkage=0.05


Tree=4
num_leaves=31
num_cat=0
split_feature=5 55 15 0 5 15 15 0 5 0 15 53 7 5 10 39 39 53 18 5 10 55 11 50 15 11 77 0 15 0
split_gain=1366.67 703.946 280.192 172.847 68.4621 62.919 48.6192 34.5138 28.7201 26.3982 18.6224 16.6247 16.307 15.4859 13.4086 13.0056 11.4164 9.01647 8.04101 7.61815 7.38406 6.42667 6.41209 6.12985 5.45144 5.26565 5.122 6.93081 4.99749 4.04829
threshold=-0.22790280624337642 1.3560593589143382 -0.6461416091483968 0.32384149422284858 2.4567094476200872 -0.039129303433427291 -1.4753776356031023 -0.1697265238888864 0.87143604264745766 0.81740951233458359 -0.083139012441883084 0.22700914789019863 -0.3494723809262808 -2.2254470624765035 0.28212419528058108 -0.49568518054750421 -0.54436137068319967 3.7404768555155412 -1.9540768864943197 3.1751584784451214 -0.39571961933825378 -0.023534122102068799 0.5579344932499628 0.48500547978077097 -0.24168451413082542 0.42555255339224118 12.88755575131213 2.2981135666697887 -0.0054380216439271255 -0.91007855105648872
decision_type=2 2 2 2 2 2 2 2 2 2 2 2 2 2 2 2 2 2 2 2 2 2 2 2 2 2 2 2 2 2
left_child=2 3 6 5 10 8 13 11 12 15 17 -4 25 -1 28 -5 -11 -3 -18 -6 -9 -16 -14 29 -22 -2 27 -15 -7 -13
right_child=1 4 7 9 19 14 -8 20 -10 16 -12 23 22 26 21 -17 18 -19 -20 -21 24 -23 -24 -25 -26 -27 -28 -29 -30 -31
leaf_value=-0.081208280776883232 0.0062275451645326186 0.055745063190571743 0.0087218939912794471 0.019676061408144648 0.084128587772237501 0.0073440104361547718 -0.039492353818638165 -0.027669510564850116 0.035458083857189529 0.0035687237227608895 0.034050645735639505 -0.0038390732987167 0.019673259075416921 -0.056297486099813665 0.042366454076199309 -0.0055936665660037965 -0.035014871893582322 0.074471146909935962 -0.018270521591005558 0.10415356705586117 -0.024345935430181653 0.013386994776597549 0.029367837675593117 -0.030705998583537775 -0.011645231924917617 0.015239712848492404 -0.040919427897192932 -0.07218110161823231 -0.00029749744438052893 -0.013546188852133257
leaf_weight=91 262 171 116 58 94 344 421 492 264 46 71 154 759 280 21 417 99 103 260 96 171 215 220 41 167 425 38 91 566 355
leaf_count=91 262 171 116 58 94 344 421 492 264 46 71 154 759 280 21 417 99 103 260 96 171 215 220 41 167 425 38 91 566 355
internal_value=2.36276e-11 0.0163152 -0.0303151 0.00903544 0.0701446 0.0146256 -0.0520119 -0.0169576 0.0201359 -0.0105045 0.0568711 -0.00847946 0.0177079 -0.0625533 0.00534542 -0.0025081 -0.0198831 0.0627844 -0.022888 0.0942465 -0.0237606 0.0159657 0.0218518 -0.0121074 -0.0180707 0.0118028 -0.0584027 -0.0601935 0.00259116 -0.0106093
internal_weight=6908 4491 2417 3956 535 3076 921 1496 1930 880 345 666 1666 500 1146 475 405 274 359 190 830 236 979 550 338 687 409 371 910 509
internal_count=6908 4491 2417 3956 535 3076 921 1496 1930 880 345 666 1666 500 1146 475 405 274 359 190 830 236 979 550 338 687 409 371 910 509
is_linear=0
shrinkage=0.05


Tree=5
num_leaves=31
num_cat=0
split_feature=5 55 15 0 5 15 15 15 0 17 15 10 5 7 15 14 53 15 51 4 52 5 1 78 70 15 8 51 15 5
split_gain=1233.42 635.312 253.591 155.994 61.9015 57.4011 47.7671 26.3522 24.0354 22.8422 17.6052 15.0206 14.1282 13.4217 10.814 10.1433 8.95667 8.82164 8.59193 8.09661 6.42248 5.7373 4.89515 4.83255 4.68718 4.66477 4.64599 4.60351 3.80803 3.73781
threshold=-0.22790280624337642 1.3560593589143382 -0.98772281162399855 0.32384149422284858 2.592650353993772 -0.07965370016198943 -0.15485581654795422 -3.3030830686764268 1.0641935213904512 -0.18523854346725324 -0.083139012441883084 -0.058887403942882784 0.31790447899193441 0.10881897696299728 -0.33004144739227548 -0.78438154190327669 3.7404768555155412 -1.4753776356031023 -0.90156307976951844 -0.65237367238955601 0.82698042987406206 3.1751584784451214 -0.76612394457834943 12.187868835561675 1.0000000180025095e-35 0.65210829639066092 -1.395731959490091 -0.49575338669198071 0.035023482858866355 0.97308214040409846
decision_type=2 2 2 2 2 2 2 2 2 2 2 2 2 2 2 2 2 2 2 2 2 2 2 2 2 2 2 2 2 2
left_child=2 3 7 5 10 9 23 19 12 -2 16 20 24 15 29 -7 -3 -9 -10 -1 25 -6 -15 -4 -5 -8 -20 -24 -13 -11
right_child=1 4 6 8 21 13 11 17 18 14 -12 28 -14 22 -16 -17 -18 -19 26 -21 -22 -23 27 -25 -26 -27 -28 -29 -30 -31
leaf_value=-0.053885688822148219 0.034375467890685844 0.05295780844855727 -0.034562698900382126 -0.0094342160927928208 0.080995431937367079 0.013739816053171774 -0.012596784481154592 -0.053269212523644617 0.0014644515086963241 0.02135887290396303 0.032494388854441544 -0.0069603531584143639 0.010440598753755399 0.035365795850753785 0.013644868781188015 0.001449584931840624 0.071098973582276209 -0.040343405984471115 -0.032828009945202484 -0.076140313276222782 -0.020650314706422035 0.098945890553295612 0.022558483308867408 -0.025135025479269203 0.013722421785654582 -0.00089533435624270213 -0.01916932865704464 0.010293513460590743 0.010026303147561082 0.032913486880284774
leaf_weight=59 258 171 176 438 83 210 451 308 35 515 72 50 129 25 662 837 113 231 108 133 210 96 95 597 23 105 147 393 97 81
leaf_count=59 258 171 176 438 83 210 451 308 35 515 72 50 129 25 662 837 113 231 108 133 210 96 95 597 23 105 147 393 97 81
internal_value=-4.52561e-11 0.0154994 -0.0287993 0.00858367 0.0666374 0.0138943 -0.0181351 -0.0533956 -0.00997931 0.0208229 0.0545774 -0.0103912 -0.00418599 0.00716104 0.0180435 0.00391467 0.0601759 -0.0477296 -0.0217657 -0.0693017 -0.0132007 0.0906225 0.0137867 -0.0272816 -0.0082789 -0.010387 -0.0249542 0.0126812 0.00424853 0.0229292
internal_weight=6908 4491 2417 3956 535 3076 1686 731 880 1516 356 913 590 1560 1258 1047 284 539 290 192 766 179 513 773 461 556 255 488 147 596
internal_count=6908 4491 2417 3956 535 3076 1686 731 880 1516 356 913 590 1560 1258 1047 284 539 290 192 766 179 513 773 461 556 255 488 147 596
is_linear=0
shrinkage=0.05


Tree=6
num_leaves=31
num_cat=0
split_feature=5 55 15 0 15 15 15 5 0 17 15 5 10 7 15 10 14 14 40 11 41 55 10 27 4 15 15 51 0 0
split_gain=1113.72 579.906 219.444 150.909 56.0247 51.6598 38.7928 23.9891 23.1221 20.6151 14.0113 13.406 13.1394 11.4407 9.75963 9.58383 8.83539 8.83011 8.35759 5.95276 5.3206 4.96911 4.76173 4.70322 4.65995 4.87921 4.59322 4.11495 4.37893 4.06697
threshold=-0.29789994018487748 1.3560593589143382 -0.98772281162399855 0.32384149422284858 -1.9109877978800716 -0.07965370016198943 -0.15485581654795422 -2.0888090232496177 1.0641935213904512 -0.18523854346725324 -1.7637314561727366 0.42747715818060389 2.5786956088176902 0.10881897696299728 -0.33004144739227548 -0.058887403942882784 -0.30975174668749889 -1.4463193813649238 0.97822411096165995 0.3223176251030902 -1.2181750656853743 0.68439190814388529 0.63763303215774292 -0.40458721030032357 -0.70015687142206662 -3.553632426464131 -0.6409998297382542 -0.49575338669198071 -0.41651053294475388 1.8045455485580537
decision_type=2 2 2 2 2 2 2 2 2 2 2 2 2 2 2 2 2 2 2 2 2 2 2 2 2 2 2 2 2 2
left_child=2 3 7 5 12 9 26 -1 11 -2 24 22 -3 17 -11 19 -6 -7 29 21 -18 -8 -5 -15 -9 -26 -4 -25 -29 -10
right_child=1 4 6 8 16 13 15 10 18 14 -12 -13 -14 23 -16 -17 20 -19 -20 -21 -22 -23 -24 27 25 -27 -28 28 -30 -31
leaf_value=-0.071689081580742539 0.032656694740750072 0.067225615392651469 -0.032386788359562463 -0.010097423134675647 0.028325369935102609 0.015130115378129956 -0.012577018892199929 -0.04257681325078011 -0.021950968283565995 0.021782754023400006 -0.03889470854488046 0.014929075419454825 0.089878103137016302 0.036756052793934943 0.012962625275854532 0.0027609530054271605 0.055411232084683751 0.0020834737450114459 -0.0049537117459944324 -0.0071353591860297402 0.035688327678612304 -0.023705332523724379 0.00025390181412009182 0.021571991086492076 -0.071321059611378884 -0.053750247815076049 -0.023643411077255531 0.018372029828077015 0.0066831181261696364 -0.037642027493917721
leaf_weight=115 258 114 209 386 49 151 307 70 187 596 293 79 146 20 662 117 184 919 63 299 42 149 156 92 49 204 534 110 295 53
leaf_count=115 258 114 209 386 49 151 307 70 187 596 293 79 146 20 662 117 184 919 63 299 42 149 156 92 49 204 534 110 295 53
internal_value=8.26074e-11 0.0143969 -0.027996 0.00789923 0.0633055 0.013181 -0.0177078 -0.0507258 -0.00983825 0.0197818 -0.0468122 -0.00431337 0.0799459 0.00687558 0.0171413 -0.0105547 0.0475728 0.00392464 -0.0211615 -0.0126182 0.0517459 -0.0162132 -0.00711807 0.012983 -0.0539943 -0.0571533 -0.0261029 0.0120263 0.00985788 -0.0254161
internal_weight=6908 4562 2346 4027 535 3103 1615 731 924 1516 616 621 260 1587 1258 872 275 1070 303 755 226 456 542 517 323 253 743 497 405 240
internal_count=6908 4562 2346 4027 535 3103 1615 731 924 1516 616 621 260 1587 1258 872 275 1070 303 755 226 456 542 517 323 253 743 497 405 240
is_linear=0
shrinkage=0.05


Tree=7
num_leaves=31
num_cat=0
split_feature=5 55 15 0 45 18 15 0 15 0 15 17 39 15 10 55 15 29 53 5 45 13 0 53 77 17 5 20 13 38
split_gain=1005.14 523.365 198.096 136.196 51.2567 47.0334 35.6833 24.0383 22.1426 20.9746 12.3539 11.8604 10.3231 10.2843 9.19804 9.18681 8.99026 8.11695 7.75193 5.50613 5.06813 5.41948 4.75537 4.75024 4.70086 4.6755 4.17799 3.86507 3.8273 3.71447
threshold=-0.29789994018487748 1.3560593589143382 -0.6461416091483968 0.32384149422284858 -1.7980151198657517 -0.26644197018159987 -1.8129547159501962 -0.1697265238888864 -0.032112243225757807 0.81740951233458359 -0.059687020951768456 -0.088531749376947508 -0.49568518054750421 -2.500978472770846 -0.80765013789467111 0.20235138977623732 -5.3802527620832912 -0.40383461171938412 0.1885194952006112 -1.0355574708757174 1.2244171909853978 1.8281582930012354 1.3109775304463187 3.7404768555155412 12.88755575131213 -0.081006948736487019 0.40245985627152769 -0.081677982696188867 0.63718298383732863 0.0006183176886394152
decision_type=2 2 2 2 2 2 2 2 2 2 2 2 2 2 2 2 2 2 2 2 2 2 2 2 2 2 2 2 2 2
left_child=2 3 6 5 13 17 16 14 11 12 23 -7 -5 -3 -4 22 -1 -2 28 -9 21 -8 -11 -6 -18 -16 29 -21 -10 -13
right_child=1 4 7 9 10 8 20 19 18 15 -12 26 -14 -15 25 -17 24 -19 -20 27 -22 -23 -24 -25 -26 -27 -28 -29 -30 -31
leaf_value=-0.071204494578497743 0.036807544543019807 0.085552519268089253 -0.015966381704789149 0.017423774555710883 0.046709439746407143 0.024667474142251872 -0.032689246124489979 -0.027984192406767933 0.00075270617198660108 -0.015452868542689386 0.025620987745933233 0.0029918532664918243 -0.0050117375247274096 0.064888182941537642 0.014903027379477863 -0.0034479327596452823 -0.054155174958503853 0.021273431894341954 0.013776030255211217 -0.022074801339922116 -0.054950042385043522 -0.048631016348229084 -0.027403406219161819 0.06292922881341749 -0.033687171580330015 -0.0049758144350492582 0.015334463383559583 -0.013841383666803334 0.014047576326491505 0.011175753552236071
leaf_weight=77 96 143 226 58 166 195 423 201 812 168 60 190 442 104 32 91 295 678 155 317 33 61 165 62 31 391 406 259 58 513
leaf_count=77 96 143 226 58 166 195 423 201 812 168 60 190 442 104 32 91 295 678 155 317 33 61 165 62 31 391 406 259 58 513
internal_value=-9.59956e-11 0.0136771 -0.0265962 0.00750427 0.0601402 0.012522 -0.044685 -0.014926 0.0089733 -0.00934634 0.0458078 0.0132957 -0.00240922 0.0768517 -0.00782288 -0.0175269 -0.0558383 0.0232001 0.00347438 -0.020859 -0.0359911 -0.0346984 -0.0213743 0.0511201 -0.0522088 -0.00347198 0.0112961 -0.0183726 0.00163903 0.00896389
internal_weight=6908 4562 2346 4027 535 3103 920 1426 2329 924 288 1304 500 247 649 424 403 774 1025 777 517 484 333 228 326 423 1109 576 870 703
internal_count=6908 4562 2346 4027 535 3103 920 1426 2329 924 288 1304 500 247 649 424 403 774 1025 777 517 484 333 228 326 423 1109 576 870 703
is_linear=0
shrinkage=0.05


Tree=8
num_leaves=31
num_cat=0
split_feature=5 55 15 0 5 20 15 0 53 15 5 17 7 13 55 10 15 5 20 0 10 7 41 5 0 59 11 78 46 44
split_gain=907.135 472.337 179.196 122.926 46.5212 37.0299 31.6705 29.9742 20.3011 18.7188 18.7115 13.415 9.72997 9.15589 8.29109 8.24244 6.68196 6.56903 6.55938 5.97809 5.52022 5.21095 4.50347 4.41422 4.29172 4.17933 4.10849 3.9518 3.93435 3.64069
threshold=-0.29789994018487748 1.3560593589143382 -0.98772281162399855 1.0000000180025095e-35 2.592650353993772 -0.22688926482065266 -0.15485581654795422 0.81740951233458359 2.2028912859074543 -0.033865082521203752 0.47350054428089533 -0.37562100552809746 -0.3494723809262808 2.0827877468835729 0.20235138977623732 -0.80765013789467111 -3.7270816800332356 1.8517151323619037 -0.68194339845089036 -0.66329454200062132 0.43754503138778994 -0.3494723809262808 -1.1641860590687523 3.1751584784451214 1.3109775304463187 -1.2379110503077464 0.4889299809286386 12.119353925268902 0.080926377777804939 -1.704345530138961
decision_type=2 2 2 2 2 2 2 2 2 2 2 2 2 2 2 2 2 2 2 2 2 2 2 2 2 2 2 2 2 2
left_child=2 3 8 5 11 18 27 10 13 12 20 17 26 -1 24 -8 -10 -3 -2 -17 -5 -11 -22 -6 -9 -20 -7 -4 -18 -13
right_child=1 4 6 7 23 9 15 14 16 21 -12 29 -14 -15 -16 19 28 -19 25 -21 22 -23 -24 -25 -26 -27 -28 -29 -30 -31
leaf_value=-0.035881229438092611 0.033786108603369662 0.043757392841727798 -0.032748237283586869 -0.0066221090628031075 0.069481840406555737 0.0045676153316324764 -0.016687712400478658 -0.014680225331089571 -0.067478347287594706 -0.0014232508930681832 0.015799663241990416 0.035863036777771695 0.01702188310100286 -0.05103468967304714 -0.0032755360495974567 0.0003608506724937951 -0.066708422683436297 0.059633487338821095 0.0029269214786056962 -0.010015868660311969 0.025190949124710944 0.007196553106755388 0.00067907402087163569 0.085227065781752265 -0.026033235905536762 0.023068999850431985 0.012342089506911867 -0.022108429522056761 -0.045837426959883937 0.012584120704030449
leaf_weight=359 156 119 101 492 83 296 274 168 103 297 148 71 843 138 91 219 29 144 28 379 21 428 174 96 165 321 399 642 102 22
leaf_count=359 156 119 101 492 83 296 274 168 103 297 148 71 843 138 91 219 29 144 28 379 21 428 174 96 165 321 399 642 102 22
internal_value=3.83012e-11 0.0129932 -0.0252664 0.00712906 0.0571332 0.0130206 -0.0159694 -0.00582398 -0.0458063 0.0102887 -0.000326418 0.0466783 0.0134109 -0.0400888 -0.0166506 -0.00950622 -0.0579497 0.05245 0.0252628 -0.0062157 -0.00380045 0.00366541 0.00331881 0.0779262 -0.0203056 0.021453 0.00903095 -0.0235548 -0.0504577 0.0303562
internal_weight=6908 4562 2346 4027 535 2768 1615 1259 731 2263 835 356 1538 497 424 872 234 263 505 598 687 725 195 179 333 349 695 743 131 93
internal_count=6908 4562 2346 4027 535 2768 1615 1259 731 2263 835 356 1538 497 424 872 234 263 505 598 687 725 195 179 333 349 695 743 131 93
is_linear=0
shrinkage=0.05


Tree=9
num_leaves=31
num_cat=0
split_feature=5 55 15 0 45 20 15 5 0 0 15 51 15 5 77 10 20 5 78 18 59 53 13 53 4 70 53 57 5 70
split_gain=818.692 428.616 158.655 115.299 42.1022 40.4846 26.5565 23.7128 20.9884 18.1812 14.583 10.4696 10.2104 8.63563 6.86615 6.84505 6.83598 6.71323 5.00757 4.43851 4.21111 4.18125 4.24405 4.08201 3.54327 3.39086 3.30725 3.16421 3.13825 3.05435
threshold=-0.36417827557372767 1.3560593589143382 -0.72937704478517296 0.32384149422284858 -1.7980151198657517 -0.22688926482065266 -1.9844124381088828 0.53772837718213895 -0.1697265238888864 1.0641935213904512 -0.0049280062286855336 -0.39999294019797765 -0.059687020951768456 2.9663537825111801 13.465814392713382 -0.80765013789467111 -0.83721290522718383 -2.2254470624765035 12.187868835561675 -0.26644197018159987 -1.2379110503077464 2.4107410678257253 1.8281582930012354 3.7404768555155412 -0.857158811100316 1.0000000180025095e-35 0.22700914789019863 0.11549222029869104 0.81365684823831241 1.0000000180025095e-35
decision_type=2 2 2 2 2 2 2 2 2 2 2 2 2 2 2 2 2 2 2 2 2 2 2 2 2 2 2 2 2 2
left_child=2 3 6 5 13 16 17 10 15 11 19 -5 23 -3 27 -4 -2 -1 -10 -7 -18 22 -8 -6 -19 -13 -17 -11 -9 -21
right_child=1 4 8 9 12 7 21 28 18 14 -12 25 -14 -15 -16 26 20 24 -20 29 -22 -23 -24 -25 -26 -27 -28 -29 -30 -31
leaf_value=-0.063478961124502381 0.035923756031319497 0.061449476472147692 -0.014333676987722211 0.011533301112940535 0.042027733385203832 0.016619939061044305 -0.030678384594077332 0.014485012020215094 -0.027011942678276515 -0.015834207254311613 -0.00011540289172522916 -0.0074095309431904391 0.022934767972522727 0.080385154313766041 -0.00064920208609217536 0.0049646903496209744 0.003622089771013106 -0.027297907993197441 -0.017404738099732846 0.0067638381926757325 0.022793180007297319 -0.053600391507148751 -0.044001854243023053 0.057063457586111567 -0.049137739089245985 0.010777133475682975 -0.0058698425146051 -0.026714943670370479 0.021748997460402517 0.013666946631060054
leaf_weight=87 100 143 226 95 166 169 409 431 173 127 648 505 60 104 46 90 31 20 628 944 377 25 70 62 260 27 324 141 227 193
leaf_count=87 100 143 226 95 166 169 409 431 173 127 648 505 60 104 46 90 31 20 628 944 377 25 70 62 260 27 324 141 227 193
internal_value=-8.62782e-12 0.0122084 -0.0242689 0.00666628 0.0542766 0.0112931 -0.041116 0.00878133 -0.0140858 -0.00867458 0.00601677 -0.00375625 0.0412869 0.0694224 -0.0184956 -0.00733503 0.024208 -0.0513472 -0.0194797 0.00905938 0.0213366 -0.0336659 -0.0326254 0.0461164 -0.0475778 -0.00648652 -0.00351451 -0.0215588 0.016991 0.00793561
internal_weight=6908 4596 2312 4061 535 3120 871 2612 1441 941 1954 627 288 247 314 640 508 367 801 1306 408 504 479 228 280 532 414 268 658 1137
internal_count=6908 4596 2312 4061 535 3120 871 2612 1441 941 1954 627 288 247 314 640 508 367 801 1306 408 504 479 228 280 532 414 268 658 1137
is_linear=0
shrinkage=0.05


Tree=10
num_leaves=31
num_cat=0
split_feature=5 55 15 0 15 15 15 0 15 53 5 39 7 5 0 52 53 15 35 50 10 15 20 13 77 0 52 43 0 45
split_gain=738.891 384.718 146.784 101.467 41.7147 38.374 26.6077 17.8574 14.5739 11.9177 10.2224 10.154 9.10041 9.01795 8.42285 7.56217 7.26818 6.82188 6.25284 4.74127 4.37629 3.7451 3.57534 3.45815 3.38184 4.46462 3.01352 3.00187 2.96757 2.9021
threshold=-0.29789994018487748 1.3560593589143382 -0.6461416091483968 0.57062550327871608 -0.25319865240628986 -2.500978472770846 -1.4753776356031023 -0.1697265238888864 -0.032112243225757807 3.8643706096098396 0.87143604264745766 -0.34024770580540764 0.073355955221565031 -2.2254470624765035 1.3109775304463187 -0.020036846630242636 0.22700914789019863 -0.059687020951768456 -0.64311194450681231 0.48500547978077097 -0.39571961933825378 0.17748179525682703 -0.4664524569201014 -0.26289290897935019 12.88755575131213 2.2981135666697887 0.017089663403981378 -1.0247910642958062 -0.91007855105648872 1.2244171909853978
decision_type=2 2 2 2 2 2 2 2 2 2 2 2 2 2 2 2 2 2 2 2 2 2 2 2 2 2 2 2 2 2
left_child=2 3 6 4 10 -3 13 16 15 17 -2 -5 27 -1 26 -6 -4 -7 -14 28 -9 -20 -17 -11 25 -15 -13 -10 -18 -8
right_child=1 5 7 11 8 9 29 20 12 23 -12 14 18 24 -16 22 19 -19 21 -21 -22 -23 -24 -25 -26 -27 -28 -29 -30 -31
leaf_value=-0.060403092876895451 0.016112121391973905 0.07321662924982407 0.0058362296900025222 0.0057840217412002898 0.006482606416277327 0.040320764803167049 -0.028142898336646932 -0.020727247617877566 0.010025813856017999 0.035473401002261949 0.028485701156647076 -0.012686570031316916 0.033495407417902481 -0.041328160696263827 -0.022583743994836133 0.02496497262424479 -0.0017662759675257295 0.01902941003597031 0.0050188751867535839 -0.025237300773946255 -0.012940993415632924 0.016661728496049962 0.013104709444472666 0.05637242139225275 -0.028793726704622571 -0.054076381076823221 -0.0030353236558541665 -0.0013559711135854337 -0.010077301775036433 -0.047213090459505724
leaf_weight=91 655 148 99 73 566 174 399 492 63 23 224 262 23 280 191 72 154 48 438 41 285 82 541 142 38 91 117 720 355 21
leaf_count=91 655 148 99 73 566 174 399 492 63 23 224 262 23 280 191 72 154 48 438 41 285 82 541 142 38 91 117 720 355 21
internal_value=1.70732e-11 0.0117266 -0.0228033 0.00643419 0.00989384 0.0515627 -0.0383741 -0.0127576 0.0066054 0.0432816 0.0192653 -0.0117734 0.00300924 -0.0461674 -0.0140219 0.0106499 -0.00663543 0.0357172 0.00798328 -0.00888032 -0.0178713 0.00685486 0.0144978 0.0534592 -0.043 -0.0444551 -0.00970716 -0.000440195 -0.00756277 -0.0290964
internal_weight=6908 4562 2346 4027 3384 535 920 1426 2505 387 879 643 1326 500 570 1179 649 222 543 550 777 520 613 165 409 371 379 783 509 420
internal_count=6908 4562 2346 4027 3384 535 920 1426 2505 387 879 643 1326 500 570 1179 649 222 543 550 777 520 613 165 409 371 379 783 509 420
is_linear=0
shrinkage=0.05


Tree=11
num_leaves=31
num_cat=0
split_feature=5 55 15 0 5 10 0 0 55 5 20 17 15 0 55 10 18 38 15 5 48 10 47 12 41 10 7 0 5 46
split_gain=667.074 349.073 129.574 95.1602 34.8737 29.5584 22.9853 22.4846 15.6719 14.0984 13.3561 10.2045 7.63375 7.37809 6.58166 5.79108 5.62193 5.40727 5.2179 5.18626 4.92473 4.67469 4.2945 4.21253 3.88844 3.76374 3.54147 3.38795 3.30118 3.00383
threshold=-0.36417827557372767 1.3560593589143382 -0.98772281162399855 1.0000000180025095e-35 2.592650353993772 -0.052226510966859666 0.81740951233458359 -0.1697265238888864 1.2214586155925817 0.47350054428089533 -0.60808691812373816 -0.37562100552809746 -0.25319865240628986 -0.66329454200062132 0.22206760204649456 -0.80765013789467111 -0.9798760747756653 0.32103106751030447 -0.42160932532175638 1.8517151323619037 0.98279926733438316 0.43754503138778994 0.16868188876842452 -1.7540000067888051 -1.1641860590687523 -0.39571961933825378 -0.3494723809262808 1.3109775304463187 2.9663537825111801 0.11643998505280803
decision_type=2 2 2 2 2 2 2 2 2 2 2 2 2 2 2 2 2 2 2 2 2 2 2 2 2 2 2 2 2 2
left_child=2 3 8 5 11 13 9 15 16 21 -7 19 -12 26 27 -4 -1 -14 -9 -3 23 -5 -15 -10 -23 -20 -2 -8 -6 -25
right_child=1 4 7 6 28 10 14 18 20 -11 12 -13 17 22 -16 -17 -18 -19 25 -21 -22 24 -24 29 -26 -27 -28 -29 -30 -31
leaf_value=-0.038423767914585627 0.0070650953389297597 0.037242775692158385 -0.013065065429710776 -0.0060139367985843038 0.058991575558980304 0.028940554982303485 -0.012697933844208498 -0.023329416769482594 -0.062127556268657957 0.013556042671631519 0.018619844775390568 0.025696950177511863 0.014756693314308778 0.0038837658688115916 -0.0025539082649629567 -0.0031136384223146899 -0.027183578377350782 0.0057717831641590847 -0.018677358978962642 0.051349304864803949 -0.03513898096150822 0.02344220696305413 -0.0066054818451389552 -0.060426228756413736 0.00066550060766802611 -0.010068333075729253 0.014738862881999146 -0.02259475139541213 0.072753654878873086 -0.043574659887920413
leaf_weight=259 564 119 226 498 75 180 170 377 70 148 574 93 379 458 90 414 195 300 371 144 54 21 124 34 174 193 205 176 104 119
leaf_count=259 564 119 226 498 75 180 170 377 70 148 574 93 379 458 90 414 195 300 371 144 54 21 124 34 174 193 205 176 104 119
internal_value=-4.00114e-12 0.0110201 -0.0219067 0.0060186 0.0489846 0.0112023 -0.00528249 -0.013858 -0.0393145 -0.000452512 0.0162048 0.0399326 0.0143752 0.00589627 -0.014599 -0.00662774 -0.0335959 0.0107869 -0.0187754 0.0449665 -0.048687 -0.00344424 0.00164894 -0.0519677 0.00311838 -0.0157314 0.00911077 -0.0177322 0.0669874 -0.0473195
internal_weight=6908 4596 2312 4061 535 2784 1277 1581 731 841 1433 356 1253 1351 436 640 454 679 941 263 277 693 582 223 195 564 769 346 179 153
internal_count=6908 4596 2312 4061 535 2784 1277 1581 731 841 1433 356 1253 1351 436 640 454 679 941 263 277 693 582 223 195 564 769 346 179 153
is_linear=0
shrinkage=0.05


Tree=12
num_leaves=31
num_cat=0
split_feature=78 55 15 0 15 15 15 0 5 55 53 40 7 41 0 15 15 5 5 7 11 45 62 13 78 0 59 52 11 41
split_gain=602.246 305.721 131.591 78.327 32.7533 31.6478 22.1448 18.8449 15.5198 10.1171 10.0294 8.37906 8.06483 7.78351 7.45012 5.77157 5.72133 4.47277 4.18048 3.98577 3.95145 3.53102 3.51278 3.50414 3.28806 3.27475 3.18322 3.14148 3.04243 2.89614
threshold=12.923785163834932 1.3560593589143382 -0.6461416091483968 0.57062550327871608 -0.039129303433427291 -2.500978472770846 -1.8129547159501962 -0.1697265238888864 0.87143604264745766 0.049960323156681467 3.8643706096098396 0.97822411096165995 -0.3494723809262808 -1.0277672812765926 1.3109775304463187 -5.3802527620832912 -0.059687020951768456 -1.428574337772597 -1.0355574708757174 -0.3494723809262808 0.5579344932499628 1.2244171909853978 0.65649473154434113 1.8281582930012354 12.74537020736369 1.0000000180025095e-35 -0.35635077905300822 0.017089663403981378 0.42555255339224118 -0.1500049230701265
decision_type=2 2 2 2 2 2 2 2 2 2 2 2 2 2 2 2 2 2 2 2 2 2 2 2 2 2 2 2 2 2
left_child=2 3 6 4 8 -3 15 9 12 29 16 14 28 -6 27 -1 -7 -11 -9 -15 -14 23 -13 -8 -17 -21 -19 -5 -2 -4
right_child=1 5 7 11 13 10 21 18 -10 17 -12 22 20 19 -16 24 -18 26 -20 25 -22 -23 -24 -25 -26 -27 -28 -29 -30 -31
leaf_value=-0.055752328967119194 0.0032463141133607086 0.066200158503409975 0.025528571689906326 -0.012325524298728191 0.016725900659638675 0.036291519329808224 -0.025110616148276782 -0.022204967485034182 0.024688270314822371 -0.025477908644825221 0.048351519387779818 -0.016030724736099896 0.012830658277901487 -0.0022989137719482502 -0.021989480027114042 -0.041979467394557532 0.016793091925016292 -0.0093697136559977925 -0.013954218468257191 0.0068895121779741194 0.020394523390187703 -0.04363005698630304 0.0062096718336840211 -0.037929450231985969 -0.023108445256948471 0.00076896766763660644 -0.0019476625720521641 -0.0020385865450537363 0.010096677396734081 0.0052471506595611582
leaf_weight=77 262 148 23 220 99 174 423 201 264 32 165 22 765 357 160 301 48 348 650 458 223 33 92 61 25 418 247 112 425 75
leaf_count=77 262 148 23 220 99 174 423 201 264 32 165 22 765 357 160 301 48 348 650 458 223 33 92 61 25 418 247 112 425 75
internal_value=-5.91786e-11 0.0111042 -0.019628 0.00621488 0.00927384 0.0465354 -0.0346541 -0.0108565 0.0134207 -0.00493287 0.039015 -0.0102964 0.0116448 0.00323722 -0.0131265 -0.0434403 0.0320756 -0.00726798 -0.015903 0.00215419 0.0145379 -0.0278052 0.00191767 -0.0267262 -0.0405323 0.00396898 -0.00628863 -0.00885523 0.00748417 0.0100071
internal_weight=6908 4412 2496 3877 3271 535 920 1576 1939 725 387 606 1675 1332 492 403 222 627 851 1233 988 517 114 484 326 876 595 332 687 98
internal_count=6908 4412 2496 3877 3271 535 920 1576 1939 725 387 606 1675 1332 492 403 222 627 851 1233 988 517 114 484 326 876 595 332 687 98
is_linear=0
shrinkage=0.05


Tree=13
num_leaves=31
num_cat=0
split_feature=5 45 15 0 20 15 15 0 5 0 5 53 15 15 8 15 62 77 45 5 10 53 38 20 45 13 52 78 38 0
split_gain=544.023 279.463 112.813 75.6001 33.6421 20.1011 19.5132 18.3536 15.3199 14.6725 11.8188 8.40573 7.23266 6.55411 5.38543 5.20884 4.79231 4.53119 3.95177 3.86258 3.64779 3.58729 3.47014 3.20317 3.20181 3.18349 3.04211 3.02406 2.8474 3.47652
threshold=-0.22790280624337642 -1.1975880343032641 -0.6461416091483968 1.0000000180025095e-35 -0.4664524569201014 -1.8129547159501962 -2.500978472770846 0.81740951233458359 0.55149045823232645 -0.1697265238888864 0.47350054428089533 0.22700914789019863 -0.0049280062286855336 1.7694839901926731 -1.4432831980543597 -5.3802527620832912 2.4451199559381731 13.465814392713382 0.47230180751936862 -1.091360347722284 1.4236184033284844 5.3726630331330769 0.0006183176886394152 -0.17668380581658399 1.2244171909853978 1.8281582930012354 0.0056884933826953019 12.649296439714631 0.13653525042943823 -0.66329454200062132
decision_type=2 2 2 2 2 2 2 2 2 2 2 2 2 2 2 2 2 2 2 2 2 2 2 2 2 2 2 2 2 2
left_child=2 6 5 4 16 15 -2 10 12 11 20 -4 22 21 -9 -1 -3 -16 -13 -11 26 -8 -6 -21 25 -7 -5 -17 -24 -30
right_child=1 3 9 7 8 24 13 14 -10 19 -12 18 -14 -15 17 27 -18 -19 -20 23 -22 -23 28 -25 -26 -27 -28 -29 29 -31
leaf_value=-0.052964713453472437 0.062890151223620849 0.022940633638674018 0.0071083749142668122 -0.006498279670853359 0.0031915128485565363 -0.023816534178441321 0.038351585374346804 -0.022378186338128301 0.014992832317281185 -0.025388244898399207 0.012218526923198277 -0.006275660346468594 0.00013733391516888149 0.012987975999712945 -0.012355659827363894 -0.040506723690309006 0.039441853990921608 0.0034270837598471974 -0.020290556839401171 -0.01797784368926347 0.016273704720272994 0.05029978274690862 0.01569811483998209 -0.011294459653471778 -0.041448553899923968 -0.036032977730768627 0.00053927824761239079 -0.026916353125125171 0.011170617966177786 0.0051459128388591652
leaf_weight=77 148 286 116 371 308 424 175 109 691 82 162 494 383 20 242 278 52 56 56 298 24 98 146 450 33 61 262 48 486 472
leaf_count=77 148 286 116 371 308 424 175 109 691 82 162 494 383 20 242 278 52 56 56 298 24 98 146 450 33 61 262 48 486 472
internal_value=2.22766e-13 0.0102936 -0.0191265 0.00617787 0.0106789 -0.0328938 0.0480916 -0.00419003 0.00866667 -0.0106508 0.000122588 -0.00512294 0.00623137 0.0406166 -0.0128682 -0.0412683 0.0254793 -0.00938978 -0.00770263 -0.0150864 -0.00285997 0.0426407 0.00788435 -0.0139571 -0.0263784 -0.025353 -0.00358542 -0.0385057 0.00919358 0.00820229
internal_weight=6908 4491 2417 4050 2824 921 441 1226 2486 1496 819 666 1795 293 407 403 338 298 550 830 657 273 1412 748 518 485 633 326 1104 958
internal_count=6908 4491 2417 4050 2824 921 441 1226 2486 1496 819 666 1795 293 407 403 338 298 550 830 657 273 1412 748 518 485 633 326 1104 958
is_linear=0
shrinkage=0.05


Tree=14
num_leaves=31
num_cat=0
split_feature=5 55 15 0 18 45 15 53 10 0 15 51 15 29 5 13 17 7 77 15 0 46 41 5 78 70 18 0 15 15
split_gain=491.219 256.228 95.4562 70.7481 27.0086 26.3376 16.554 12.5343 11.4582 11.3148 9.1996 6.88368 6.59204 5.63917 5.54828 5.439 4.97869 4.87903 4.44248 4.17787 3.63513 3.11063 3.09187 2.91002 2.68583 2.66903 2.62623 2.54729 3.42691 2.5293
threshold=-0.36417827557372767 1.3560593589143382 -0.98772281162399855 0.32384149422284858 -0.26644197018159987 -1.7980151198657517 -0.15485581654795422 2.2028912859074543 0.28212419528058108 1.0641935213904512 -0.01506693588759633 -0.39999294019797765 -0.059687020951768456 -0.54430776833815953 2.9663537825111801 2.0827877468835729 -0.18523854346725324 -0.76229832632654326 13.465814392713382 -3.7270816800332356 -0.66329454200062132 0.080926377777804939 -0.87425858334001061 0.67465644483703813 12.119353925268902 1.0000000180025095e-35 -0.3936443823313332 1.8045455485580537 0.2877240143113326 -0.29708417979072727
decision_type=2 2 2 2 2 2 2 2 2 2 2 2 2 2 2 2 2 2 2 2 2 2 2 2 2 2 2 2 2 2
left_child=2 3 7 4 13 14 24 15 10 11 29 -5 22 -2 -3 -1 -10 -8 27 -9 -19 -21 -7 -15 -4 -13 -26 28 -11 -6
right_child=1 5 6 9 8 12 17 19 16 18 -12 25 -14 23 -16 -17 -18 20 -20 21 -22 -23 -24 -25 26 -27 -28 -29 -30 -31
leaf_value=-0.026004377516728506 0.031733679821935749 0.047571316924128498 -0.024976803225783245 0.0094323258820038884 0.011160152609026145 0.038396582482634362 -0.012652973710020303 -0.050816261493465277 0.025963860761660795 -0.016677327889119218 -0.00040253067799778542 -0.0059981278343112345 0.016962882317602634 0.013196665185972557 0.062749260893234834 -0.037683789513033368 0.011049102786362267 0.00062872729809284559 -0.00023786322512339963 -0.051807356908403594 -0.0075872261127195341 -0.03324936952672479 0.023512309901876551 0.019777889922261239 -0.020842112951752981 0.010137100777528421 -0.013951862074379973 -0.025671466904190872 0.003443109636039784 0.0057117657665232274
leaf_weight=359 59 143 101 95 275 185 273 103 65 179 656 505 60 450 104 138 402 214 46 29 363 102 43 268 205 27 425 65 24 945
leaf_count=359 59 143 101 95 275 185 273 103 65 179 656 505 60 450 104 138 402 214 46 29 363 102 43 268 205 27 425 65 24 945
internal_value=-2.79417e-11 0.00945661 -0.0187987 0.00517158 0.00879591 0.0419828 -0.0118904 -0.0337399 0.00611694 -0.00684535 0.00437239 -0.00296536 0.0317089 0.0168742 0.053962 -0.0292474 0.013125 -0.00714574 -0.014593 -0.0432817 -0.00454006 -0.0373576 0.0355895 0.0156532 -0.0174074 -0.00517923 -0.0161939 -0.0170569 -0.0142986 0.00693989
internal_weight=6908 4596 2312 4061 3120 535 1581 731 2343 941 1876 627 288 777 247 497 467 850 314 234 577 131 228 718 731 532 630 268 203 1220
internal_count=6908 4596 2312 4061 3120 535 1581 731 2343 941 1876 627 288 777 247 497 467 850 314 234 577 131 228 718 731 532 630 268 203 1220
is_linear=0
shrinkage=0.05


Tree=15
num_leaves=31
num_cat=0
split_feature=78 45 15 0 20 15 15 0 0 5 41 7 5 15 8 38 8 18 62 77 15 38 45 26 53 18 48 1 5 64
split_gain=443.393 225.641 96.8623 62.6281 25.5979 17.2953 16.0751 15.1055 13.7617 11.3001 10.216 6.5851 5.8048 5.55968 4.67275 4.66263 4.54219 4.09669 3.98395 3.67675 3.2374 3.16283 3.14613 2.93492 2.93238 2.75553 2.72918 2.58242 2.3799 2.37752
threshold=12.923785163834932 -1.1975880343032641 -0.6409998297382542 1.0000000180025095e-35 -0.4664524569201014 -1.4753776356031023 -2.500978472770846 0.81740951233458359 -0.41651053294475388 0.55149045823232645 -1.1641860590687523 -0.62226485586037494 -2.2254470624765035 1.7694839901926731 -1.4432831980543597 0.13653525042943823 0.24853981612699394 -0.22219385660095814 2.4451199559381731 13.465814392713382 -0.0049280062286855336 0.0006183176886394152 0.69699874588750943 0.0016187367348429649 5.3726630331330769 -0.018085101839665274 0.25942495867344401 -0.34462428443120741 0.77569335778033188 0.44268941106996818
decision_type=2 2 2 2 2 2 2 2 2 2 2 2 2 2 2 2 2 2 2 2 2 2 2 2 2 2 2 2 2 2
left_child=2 6 5 4 18 12 -2 10 11 17 -5 -4 -1 24 -9 -12 22 -6 -3 -16 21 -19 27 -14 -8 -18 -13 -10 -11 -7
right_child=1 3 8 7 9 29 13 14 16 28 15 26 23 -15 19 -17 25 20 -20 -21 -22 -23 -24 -25 -26 -27 -28 -29 -30 -31
leaf_value=-0.047297890165022449 0.056890118836953829 0.020535574441396101 -0.0069265159653020408 0.01324961912400258 0.01117102257919369 -0.019005394725281063 0.034660161984818326 -0.020466633102698511 -0.0087869594932835499 0.0112825024277228 0.0033715585572549646 0.0087781286085373729 -0.036374300376132686 0.011227350775152446 -0.011067932445451843 -0.0052288681973854945 0.0052620007402517585 0.0012016484813120137 0.035589012503623965 0.0031830052429411026 0.00013274350127563702 0.0074992542411476282 -0.025535127192992592 -0.027432177801408789 0.045462787242568276 -0.0090349704772847879 -0.0035009283245225169 -0.015286476748230284 0.017353730630953995 -0.026404138037170739
leaf_weight=91 148 284 358 127 311 245 175 109 213 434 244 128 270 20 236 445 44 259 52 56 291 866 58 139 98 144 70 541 257 195
leaf_count=91 148 284 358 127 311 245 175 109 213 434 244 128 270 20 236 445 44 259 52 56 291 866 58 139 98 144 70 541 257 195
internal_value=-6.23151e-12 0.00952781 -0.0168416 0.00575964 0.00993379 -0.0295142 0.0434584 -0.00368622 -0.00918593 0.00813685 0.000218769 -0.00287978 -0.0358765 0.0366738 -0.0116325 -0.00218314 -0.0126922 0.00597475 0.0228653 -0.00833488 0.00483348 0.00604941 -0.0143136 -0.0333353 0.038538 -0.00568887 0.00443705 -0.0134504 0.0135405 -0.0222844
internal_weight=6908 4412 2496 3971 2754 940 441 1217 1556 2418 816 556 500 293 401 689 1000 1727 336 292 1416 1125 812 409 273 188 198 754 691 440
internal_count=6908 4412 2496 3971 2754 940 441 1217 1556 2418 816 556 500 293 401 689 1000 1727 336 292 1416 1125 812 409 273 188 198 754 691 440
is_linear=0
shrinkage=0.05


Tree=16
num_leaves=31
num_cat=0
split_feature=5 45 15 0 20 20 15 5 55 0 5 15 29 10 11 62 65 18 48 15 5 12 53 53 46 0 61 49 7 5
split_gain=400.81 209.196 77.6814 62.6055 29.6487 14.6634 13.6255 11.8642 10.5784 9.86875 7.08432 7.02531 6.64677 4.51091 4.1017 4.0375 4.02904 3.84056 3.75031 3.68511 2.92042 2.88544 2.85629 3.06688 2.61054 2.49827 2.33057 2.22905 2.15026 1.94456
threshold=-0.36417827557372767 -1.1975880343032641 -0.98772281162399855 0.32384149422284858 -0.23477069123029692 -1.6914036176886673 -0.20510007855817136 0.42747715818060389 1.2214586155925817 1.3109775304463187 0.31790447899193441 -0.0049280062286855336 -0.8294682965481176 -0.080959774784999147 0.4889299809286386 2.7169764634241163 -0.11227372224354032 -0.89605102075293208 0.98279926733438316 1.6934923609351762 -1.091360347722284 -1.7540000067888051 0.36104530139072671 0.3367711062217264 0.11643998505280803 -0.66329454200062132 -0.76222797351658256 -0.82488229389705603 -0.3949377934152965 0.81365684823831241
decision_type=2 2 2 2 2 2 2 2 2 2 2 2 2 2 2 2 2 2 2 2 2 2 2 2 2 2 2 2 2 2
left_child=2 5 8 4 12 15 27 11 17 10 26 25 -3 14 20 -2 -11 -1 21 -7 -8 -10 23 -14 -23 -6 -5 -4 -27 -9
right_child=1 3 6 9 7 19 13 29 18 16 -12 -13 22 -15 -16 -17 -18 -19 -20 -21 -22 24 -24 -25 -26 28 -28 -29 -30 -31
leaf_value=-0.028800151563953914 0.042602649608017074 0.031018760554738095 -0.028365289813813727 0.003775762455877971 0.008423071894060977 0.033471568755470638 -0.021273042554301874 0.0097775665374610909 -0.049431128885064811 -0.0069392341540863173 0.006534783554595117 -0.0001875403401906085 0.015443912007689268 0.0024978775085319205 -0.0026022858963545481 0.05552431319768613 -0.020352758592791641 -0.018802173907423152 -0.026336908312859359 0.010835420228540898 -0.0092886197990158948 -0.049394204796237108 0.020442069543781072 0.0019060217425598801 -0.033684507532029596 -0.00061586840813146601 -0.0068834958615104098 -0.015715214160661926 0.0058715116500804602 0.015299760319787678
leaf_weight=316 113 91 37 57 641 178 56 487 70 92 146 643 214 111 234 130 143 138 54 20 551 34 226 52 119 181 511 592 434 237
leaf_count=316 113 91 37 57 641 178 56 487 70 92 146 643 214 111 234 130 143 138 54 20 551 34 226 52 119 181 511 592 434 237
internal_value=-2.23622e-11 0.00854214 -0.0169808 0.00506686 0.00840605 0.0412855 -0.0107488 0.00613919 -0.0304593 -0.00621393 -0.00328875 0.00406286 0.018605 -0.00697583 -0.00822622 0.0495155 -0.0151015 -0.0257611 -0.0381597 0.0311851 -0.0103943 -0.0410226 0.016309 0.0127974 -0.0371756 0.00623882 -0.00581382 -0.0164593 0.00396222 0.0115852
internal_weight=6908 4596 2312 4155 3206 441 1581 2623 731 949 714 1899 583 952 841 243 235 454 277 198 607 223 492 266 153 1256 568 629 615 724
internal_count=6908 4596 2312 4155 3206 441 1581 2623 731 949 714 1899 583 952 841 243 235 454 277 198 607 223 492 266 153 1256 568 629 615 724
is_linear=0
shrinkage=0.05


Tree=17
num_leaves=31
num_cat=0
split_feature=5 45 15 0 5 15 15 0 0 20 7 17 55 0 17 38 47 5 44 59 4 7 10 26 13 78 15 0 1 72
split_gain=361.731 188.8 70.2493 56.7051 28 13.347 12.9531 12.037 9.40609 7.17533 6.18914 6.03238 5.99992 4.93391 4.72256 3.79349 3.78572 3.74416 3.63237 3.43618 3.12062 3.10868 3.0813 3.07968 3.06975 3.01045 2.85469 2.81942 2.38283 2.24136
threshold=-0.36417827557372767 -1.1975880343032641 -0.72937704478517296 0.57062550327871608 0.62581960390440339 -2.500978472770846 -2.500978472770846 -0.66329454200062132 -0.1697265238888864 -0.48739475443451791 -0.3494723809262808 -0.17553988193369621 0.30008303488536081 1.5577615395021862 -0.18523854346725324 0.13653525042943823 0.51861739577600163 -2.0888090232496177 -0.87937944858728689 -0.19604946198866691 -0.70015687142206662 -0.3494723809262808 0.65852995129820802 -0.33248723615745174 1.8281582930012354 12.187868835561675 -3.553632426464131 1.0000000180025095e-35 -1.0290861218884781 1.0000000180025095e-35
decision_type=2 2 2 2 2 2 2 2 2 2 2 2 2 2 2 2 2 2 2 2 2 2 2 2 2 2 2 2 2 2
left_child=2 5 6 4 7 -2 20 9 16 23 -9 -6 13 22 -7 -12 19 -8 -17 -4 -1 28 -5 -3 29 -10 -22 -20 -11 -19
right_child=1 3 8 12 11 14 17 10 25 21 15 -13 -14 -15 -16 18 -18 24 27 -21 26 -23 -24 -25 -26 -27 -28 -29 -30 -31
leaf_value=-0.027451898922791353 0.051460197658554932 0.03834454359656031 -0.0071508371833986124 -0.010568269942497877 0.02265286256185757 0.037029838487505913 -0.043902502812090377 -0.002694198431317798 -0.018806872780520924 0.011120731874079621 0.0079495136012916936 0.012931130698751979 0.0044076666662686663 -0.019074197591366762 0.02294201581756071 0.020813108026981355 -0.018046271773520858 -0.023340610339073465 0.0036730788463020915 0.00052318933299058267 -0.044487543478292431 0.011296297262966614 -0.0015256915285183489 0.017162688530217379 -0.029955238342678193 -0.011357849021444552 -0.032509808129695963 -0.0028425264265204194 0.0038494513060128559 -0.016165950760511416
leaf_weight=74 148 22 326 323 231 210 21 450 173 148 429 516 78 127 83 25 50 288 483 264 118 387 133 78 109 628 86 253 472 175
leaf_count=74 148 22 326 323 231 210 21 450 173 148 429 516 78 127 83 25 50 288 483 264 118 387 133 78 109 628 86 253 472 175
internal_value=3.00453e-11 0.00811504 -0.0161318 0.00481351 0.0073541 0.0392212 -0.0273422 0.00502001 -0.00935578 0.00904855 0.00230074 0.0159374 -0.00861587 -0.0103583 0.0330391 0.00418959 -0.00483651 -0.0231673 0.00206999 -0.00371704 -0.0362475 0.00778002 -0.00793085 0.0218227 -0.022406 -0.0129667 -0.0394381 0.00143334 0.00558518 -0.0206288
internal_weight=6908 4596 2312 4155 3494 441 871 2747 1441 1107 1640 747 661 583 293 1190 640 593 761 590 278 1007 456 100 572 801 204 736 620 463
internal_count=6908 4596 2312 4155 3494 441 871 2747 1441 1107 1640 747 661 583 293 1190 640 593 761 590 278 1007 456 100 572 801 204 736 620 463
is_linear=0
shrinkage=0.05


Tree=18
num_leaves=31
num_cat=0
split_feature=78 5 15 0 5 15 20 5 0 18 8 10 7 17 10 55 15 13 15 0 20 18 0 77 48 16 61 29 45 58
split_gain=326.562 165.792 71.5297 46.5577 19.5267 13.095 11.5679 11.49 10.6993 9.05138 8.36673 5.85106 5.39491 4.66181 3.87088 3.79054 3.55679 3.20378 3.14727 2.75285 2.71047 2.65343 2.45924 2.26059 2.25618 2.05384 1.96908 1.88406 1.88229 1.84869
threshold=12.923785163834932 1.4734291522220737 -0.6409998297382542 1.0000000180025095e-35 0.84663420075482321 -1.9844124381088828 -3.2702203483423919 0.42747715818060389 -0.41651053294475388 -0.26644197018159987 -1.395731959490091 2.0191805988317388 -0.62226485586037494 -0.18523854346725324 0.51068424837941762 0.48246985630381389 0.01106262446661605 4.140131885662802 -0.01506693588759633 0.57062550327871608 -0.5561384294850179 -1.7856347908154284 1.5577615395021862 12.88755575131213 0.25942495867344401 0.54214991484566311 -0.025679371005355032 1.0816488342192649 1.1997652576057807 0.12738331804510022
decision_type=2 2 2 2 2 2 2 2 2 2 2 2 2 2 2 2 2 2 2 2 2 2 2 2 2 2 2 2 2 2
left_child=2 3 5 4 9 17 -3 10 12 27 21 19 -4 -8 18 16 -10 23 -11 -12 28 -5 -9 26 -14 -6 -1 -2 29 -7
right_child=1 6 8 7 25 20 13 22 15 14 11 -13 24 -15 -16 -17 -18 -19 -20 -21 -22 -23 -24 -25 -26 -27 -28 -29 -30 -31
leaf_value=-0.02797264321872317 0.012914526213353384 0.049700587524308101 -0.0059770620077194492 -0.0199411908273124 0.017514083762671013 -0.024818258513273166 0.035878625628860315 0.0089347435315765538 -0.011125298713947511 0.005725656300883902 -0.0010776481268326853 0.022388948178426786 0.0082554508877365155 0.021821941759575299 0.013454835107250169 -0.015382456757905767 -0.0030880469125979027 -0.045712842082693467 0.00052621187797437111 -0.0071514226910797188 -0.016807387681344547 -0.0088919059903887314 -0.0077031373418867599 -0.01689692446245597 -0.0029089524132931339 0.026502919973184665 -0.036100926664009506 0.00026076721748517404 -0.036609781132294586 -0.015489145729225129
leaf_weight=141 576 135 358 103 261 220 217 199 480 1300 421 22 128 81 132 327 193 42 375 335 257 115 25 26 70 84 158 31 26 70
leaf_count=141 576 135 358 103 261 220 217 199 480 1300 421 22 128 81 132 327 193 42 375 335 257 115 25 26 70 84 158 31 26 70
internal_value=-1.94827e-11 0.00817676 -0.0144535 0.00497941 0.00857593 -0.0253436 0.0375585 -0.00315405 -0.00787463 0.00698574 -0.00545519 -0.00302938 -0.00231424 0.0320578 0.00521125 -0.0109662 -0.00882041 -0.0327176 0.0045616 -0.00376907 -0.0206206 -0.0141124 0.00707784 -0.0310382 0.00430844 0.0197027 -0.0322679 0.0122683 -0.0237219 -0.0225664
internal_weight=6908 4412 2496 3979 2759 940 433 1220 1556 2414 996 778 556 298 1807 1000 673 367 1675 756 573 218 224 325 198 345 299 607 316 290
internal_count=6908 4412 2496 3979 2759 940 433 1220 1556 2414 996 778 556 298 1807 1000 673 367 1675 756 573 218 224 325 198 345 299 607 316 290
is_linear=0
shrinkage=0.05


Tree=19
num_leaves=31
num_cat=0
split_feature=5 45 15 0 20 0 20 15 18 53 41 15 52 13 52 44 62 16 38 12 15 39 44 49 57 29 46 15 46 77
split_gain=295.059 153.798 57.1435 46.7341 20.025 11.3488 11.2276 10.2398 8.87858 8.2062 7.88918 4.69491 4.08581 3.68249 3.5291 3.26904 3.20148 3.15425 3.13287 3.0503 3.02485 2.99334 2.95003 2.31132 2.14848 2.04314 1.99026 2.00062 1.9588 1.81825
threshold=-0.36417827557372767 -1.1975880343032641 -0.98772281162399855 1.0000000180025095e-35 -0.4664524569201014 0.81740951233458359 -1.6914036176886673 -0.24168451413082542 -0.26644197018159987 2.2426901130882628 -1.1641860590687523 -0.0049280062286855336 0.82698042987406206 2.0827877468835729 0.2156199544489423 -0.96899924292756145 2.7169764634241163 -2.3780958830493923 0.13653525042943823 -1.7540000067888051 1.6934923609351762 -0.72213463260036936 0.11865993627192419 0.23078658190906334 0.11387174383790748 0.043243566397149588 0.20011641294564417 -3.3030830686764268 0.21783439818021499 12.800877080434978
decision_type=2 2 2 2 2 2 2 2 2 2 2 2 2 2 2 2 2 2 2 2 2 2 2 2 2 2 2 2 2 2
left_child=2 6 9 4 15 10 16 23 -6 13 -5 21 22 25 24 -3 -2 -16 -12 -11 -8 -10 28 -4 -7 29 -21 -28 -9 -1
right_child=1 3 7 5 8 14 20 12 11 19 18 -13 -14 -15 17 -17 -18 -19 -20 26 -22 -23 -24 -25 -26 -27 27 -29 -30 -31
leaf_value=-0.025274625439744666 0.036450043907471467 0.029109880218611047 -0.017163040163565443 0.011311948469539326 0.011635879613038563 -0.0080549494657742617 0.028637555402211762 0.00088549818762070388 0.018663058256109557 -0.042819341173505082 0.0022471082994460091 -0.00018298428400260067 -0.011706956016533229 -0.029478659202763137 -0.018859831565059722 0.01685298147631864 0.047956400857521939 0.0036200878313663873 -0.0046161404461661677 -0.039743270968064306 0.0081292643770575525 0.0055724753807311058 -0.0080924217950932298 -0.010818007595837117 -0.015959438656358734 -0.013882293795034582 -0.033960850357211067 -0.021111951455840786 -0.0059703116855531107 -0.016485671266499493
leaf_weight=170 113 68 337 127 609 157 178 277 45 68 257 391 247 138 20 272 130 71 471 41 20 1477 303 250 190 102 56 66 167 90
leaf_count=170 113 68 337 127 609 157 178 277 45 68 257 391 247 138 20 272 130 71 471 41 20 1477 303 250 190 102 56 66 167 90
internal_value=1.88316e-11 0.00732913 -0.0145695 0.00434931 0.00791355 -0.00353996 0.0354042 -0.00922443 0.00637791 -0.0261297 -0.000187226 0.00470404 -0.00613217 -0.0225289 -0.0100847 0.0193044 0.0426057 -0.00132055 -0.00219326 -0.0339237 0.026566 0.00595952 -0.00428884 -0.0144607 -0.0123831 -0.0198795 -0.0302127 -0.0270098 -0.00169315 -0.0222323
internal_weight=6908 4596 2312 4155 2862 1293 441 1581 2522 731 855 1913 994 500 438 340 243 91 728 231 198 1522 747 587 347 362 163 122 444 260
internal_count=6908 4596 2312 4155 2862 1293 441 1581 2522 731 855 1913 994 500 438 340 243 91 728 231 198 1522 747 587 347 362 163 122 444 260
is_linear=0
shrinkage=0.05


Tree=20
num_leaves=31
num_cat=0
split_feature=5 39 15 0 5 15 20 0 0 29 7 10 0 55 17 5 38 5 44 7 20 72 7 15 62 4 77 15 2 0
split_gain=266.291 138.812 51.7907 42.301 21.3483 10.8397 10.4002 9.37169 6.47019 5.81191 5.31999 5.02224 4.57007 5.13254 4.52741 3.52999 3.16548 3.11028 3.00595 2.98419 2.92441 2.87422 2.83135 2.74891 2.6633 2.43898 2.24854 2.23041 2.17346 1.91099
threshold=-0.36417827557372767 -1.4023358871880043 -0.6409998297382542 0.57062550327871608 0.62581960390440339 -2.500978472770846 -1.6914036176886673 -0.66329454200062132 -0.66329454200062132 -0.54430776833815953 -0.3494723809262808 1.6813035374793446 1.8045455485580537 0.069284054575387555 -0.17553988193369621 -1.091360347722284 0.13653525042943823 -2.0888090232496177 -0.87937944858728689 -0.3494723809262808 -0.17668380581658399 1.0000000180025095e-35 -0.62226485586037494 1.5355684835866661 2.7169764634241163 -0.70015687142206662 12.800877080434978 -3.553632426464131 -0.8549113548083026 1.0000000180025095e-35
decision_type=2 2 2 2 2 2 2 2 2 2 2 2 2 2 2 2 2 2 2 2 2 2 2 2 2 2 2 2 2 2
left_child=2 6 5 4 7 25 24 9 22 -3 -9 12 13 -5 -6 -10 -12 -7 -18 28 -17 26 -4 -8 -2 -1 -19 -27 -11 -20
right_child=1 3 8 11 14 17 23 10 15 19 16 -13 -14 -15 -16 20 18 21 29 -21 -22 -23 -24 -25 -26 27 -28 -29 -30 -31
leaf_value=-0.023422964468497683 0.035013365154867776 0.024682876794618003 -0.0048453998537884369 -0.0096609660357151583 0.019580321522075367 -0.038353084027767187 0.02741386685123387 -0.0027366432537738652 -0.018193650470228397 0.0085872947887963621 0.0070801436742887096 0.016602783534853234 -0.019588130054034994 0.00096785449806034956 0.011195518964943982 -0.01272720479079195 0.01875980918109417 -0.023510527667752929 0.0029740869068091364 0.010228055498996521 -0.0067272640865294695 -0.014359984401963975 0.0050018382591026081 0.0093564904372518253 0.045558580274765309 -0.038482828257344982 -0.014924193894508862 -0.027895486846479568 0.002500036721541705 -0.0023901054601478595
leaf_weight=74 111 49 217 404 234 21 173 450 107 238 429 21 78 158 516 296 25 302 483 438 647 232 110 24 130 118 102 86 382 253
leaf_count=74 111 49 217 404 234 21 173 450 107 238 429 21 78 158 516 296 25 302 483 438 647 232 110 24 130 118 102 86 382 253
internal_value=4.10226e-12 0.00696267 -0.013841 0.00414242 0.006335 -0.0229226 0.0337357 0.00429371 -0.00767448 0.00784836 0.00189431 -0.00745738 -0.00824685 -0.00667279 0.0138116 -0.00958716 0.00364552 -0.0194207 0.00170931 0.00706869 -0.0086106 -0.0187955 -0.00153287 0.025214 0.0407017 -0.0311989 -0.0213427 -0.0340195 0.00483676 0.00113015
internal_weight=6908 4596 2312 4158 3497 935 438 2747 1377 1107 1640 661 640 562 750 1050 1190 657 761 1058 943 636 327 197 241 278 404 204 620 736
internal_count=6908 4596 2312 4158 3497 935 438 2747 1377 1107 1640 661 640 562 750 1050 1190 657 761 1058 943 636 327 197 241 278 404 204 620 736
is_linear=0
shrinkage=0.05


Tree=21
num_leaves=31
num_cat=0
split_feature=5 10 15 0 5 20 15 54 0 0 18 7 8 32 70 10 52 26 24 7 11 45 1 48 28 38 30 50 59 72
split_gain=240.703 125.916 53.5118 35.2602 13.3844 12.3555 10.2043 9.34686 8.21925 7.7303 6.27039 4.28574 3.66674 3.37356 3.16146 2.86245 2.8416 2.82884 2.59442 2.19895 2.63662 2.1983 2.01792 1.86272 1.77178 1.76137 1.7422 1.73043 1.6214 1.53736
threshold=-0.076196070843066857 1.5452123515770657 -0.6409998297382542 1.0000000180025095e-35 0.84663420075482321 -1.7826517404668434 -1.4753776356031023 -0.28754352544115375 -0.41651053294475388 1.3109775304463187 -0.26644197018159987 -0.62226485586037494 0.24853981612699394 1.7988177985258968 1.0000000180025095e-35 2.5786956088176902 0.016249217074441064 0.0016187367348429649 0.048106915598384412 -0.3494723809262808 0.4889299809286386 0.69699874588750943 -0.34462428443120741 0.25942495867344401 -0.12881176359848662 0.13653525042943823 0.51050994363448687 0.48500547978077097 -1.2379110503077464 1.0000000180025095e-35
decision_type=2 2 2 2 2 2 2 2 2 2 2 2 2 2 2 2 2 2 2 2 2 2 2 2 2 2 2 2 2 2
left_child=2 3 6 4 10 15 13 -5 11 16 28 27 21 17 19 -3 -9 -1 -7 20 -12 22 -10 -13 -14 -21 29 -4 -2 -8
right_child=1 5 8 7 -6 18 26 9 12 -11 14 23 24 -15 -16 -17 -18 -19 -20 25 -22 -23 -24 -25 -26 -27 -28 -29 -30 -31
leaf_value=-0.027816779658185804 0.00019611560210988329 0.031688714275757472 -0.0039463486023000038 0.0060763984508470656 0.01691068634840022 0.026323314234168234 -0.017831762232239302 -0.0055846977875903085 -0.006009128266954226 -0.015099424353735964 -0.0010316741259674123 0.0076062404884634401 -0.0073622940751776949 -0.03753843505476271 0.0096726875277122985 0.042572312008950022 0.00070593548329309259 -0.019183653471256498 0.015592742729932069 0.0081894668010931357 0.0048682062472029993 -0.020236090253155425 -0.011747079697254647 -0.0025104493537635012 0.0018995126536681076 0.0034190783179719412 -0.026729093326462641 -0.015803381329511895 0.0110037745745671 -0.011573711670042869
leaf_weight=299 37 99 324 218 311 167 238 494 213 169 414 130 123 62 247 155 282 139 85 334 349 58 546 70 89 460 36 34 559 167
leaf_count=299 37 99 324 218 311 167 238 494 213 169 414 130 123 62 247 155 282 139 85 334 349 58 546 70 89 460 36 34 559 167
internal_value=5.08485e-12 0.00709065 -0.0122852 0.00402679 0.00715112 0.030548 -0.0217324 -0.00325616 -0.00668362 -0.00540907 0.00588645 -0.00179723 -0.00933338 -0.0266223 0.00441746 0.0383303 -0.00329867 -0.025077 0.0227039 0.00358378 0.00166696 -0.0108538 -0.0101368 0.0040654 -0.00347408 0.00542577 -0.0161882 -0.00507244 0.0103328 -0.0152513
internal_weight=6908 4380 2528 3874 2711 506 941 1163 1587 945 2400 558 1029 500 1804 254 776 438 252 1557 763 817 759 200 212 794 441 358 596 405
internal_count=6908 4380 2528 3874 2711 506 941 1163 1587 945 2400 558 1029 500 1804 254 776 438 252 1557 763 817 759 200 212 794 441 358 596 405
is_linear=0
shrinkage=0.05


Tree=22
num_leaves=31
num_cat=0
split_feature=78 5 20 0 20 15 55 5 78 5 8 10 10 50 11 17 29 11 11 5 44 0 49 7 29 51 12 46 0 67
split_gain=217.242 112.757 44.0984 32.0931 15.6123 10.5176 8.42651 8.04619 6.98941 6.06832 5.88476 4.52527 4.34314 3.26016 3.17581 3.11927 2.7766 2.59799 2.53017 2.49468 2.38635 3.19437 2.23883 2.14205 2.12932 1.98142 1.86329 2.46959 1.84601 1.81752
threshold=12.870626208505564 1.4734291522220737 -0.5561384294850179 1.0000000180025095e-35 -0.4664524569201014 -0.24168451413082542 5.6733331394034456 0.42747715818060389 13.100069361654059 -1.5546815424902094 -1.395731959490091 1.5648032132712515 -0.080959774784999147 -0.011227801859732114 0.4889299809286386 -0.18523854346725324 -0.8294682965481176 0.59157694556644891 1.182560365432451 0.76583071542771142 0.3028454527009074 2.2981135666697887 -0.82488229389705603 -0.13396632572834652 -2.3752904099386467 -1.3917695942872934 -1.6649195180100733 0.065946931967133096 1.5577615395021862 1.0000000180025095e-35
decision_type=2 2 2 2 2 2 2 2 2 2 2 2 2 2 2 2 2 2 2 2 2 2 2 2 2 2 2 2 2 2
left_child=2 3 9 4 16 22 15 10 13 26 29 18 14 -6 25 -3 -2 23 -12 -10 21 -11 -4 -15 -8 -7 -1 -28 -9 -5
right_child=1 6 5 7 8 12 24 28 19 20 11 -13 -14 17 -16 -17 -18 -19 -20 -21 -22 -23 -24 -25 -26 -27 27 -29 -30 -31
leaf_value=-0.036242406902287305 0.024303658628939753 0.027304962786834641 -0.022012667607275712 -0.016392702857847326 0.0054432902250260116 -0.022790688623420218 0.042769191616049439 0.0074163960803056775 0.0067135868581361313 -0.019267003772227898 -0.0023389341377121472 0.018279625840485095 0.0030037044050373342 -0.0036924971279023522 -0.0012851058180544149 0.013658352272718081 0.01408850166727515 0.0050539458636496065 -0.011423182742112469 0.011843440542168338 -0.010059169058721248 -0.03301748862318999 -0.012038652299820809 0.0047707442466267637 0.03272249029519466 -0.0075268002301754318 -0.038328141812235123 -0.023554125501400312 -0.0069986003576777882 -0.007402790873513922
leaf_weight=74 90 166 62 110 556 22 107 199 996 306 705 25 148 351 237 56 255 193 86 311 56 49 608 95 104 633 36 132 25 115
leaf_count=74 90 166 62 110 556 22 107 199 996 306 705 25 148 351 237 56 255 193 86 311 56 49 608 95 104 633 36 132 25 115
internal_value=-8.16028e-12 0.00639339 -0.0122971 0.00383779 0.00678222 -0.00807612 0.0306627 -0.00278891 0.00540731 -0.0233503 -0.00463868 -0.00266465 -0.00492873 0.00264354 -0.00624488 0.0238626 0.0167533 0.000207458 -0.0033266 0.00793423 -0.0196518 -0.021165 -0.0129616 -0.00188979 0.0378173 -0.00803948 -0.0296318 -0.02672 0.00580758 -0.0117979
internal_weight=6908 4545 2363 4112 2847 1710 433 1265 2502 653 1041 816 1040 1195 892 222 345 639 791 1307 411 355 670 446 211 655 242 168 224 225
internal_count=6908 4545 2363 4112 2847 1710 433 1265 2502 653 1041 816 1040 1195 892 222 345 639 791 1307 411 355 670 446 211 655 242 168 224 225
is_linear=0
shrinkage=0.05


Tree=23
num_leaves=31
num_cat=0
split_feature=5 10 15 0 5 20 15 15 0 54 8 0 8 18 15 7 45 4 10 77 24 14 47 7 0 45 6 1 13 19
split_gain=196.344 102.844 43.7002 29.3561 13.892 10.2277 8.48108 7.3713 6.89149 4.04239 3.78544 3.14247 3.06976 3.05091 2.94475 2.67505 2.99521 2.42535 2.3096 2.25259 2.16053 2.14541 2.10817 1.92242 1.87069 1.85595 1.82183 1.7815 1.69466 1.58548
threshold=-0.076196070843066857 1.5452123515770657 -0.6409998297382542 0.57062550327871608 0.64322697773276494 -1.7826517404668434 -1.4753776356031023 -0.033865082521203752 -0.41651053294475388 -0.16808420045834946 -0.037768693965235134 1.3109775304463187 0.24853981612699394 -0.32917328805351276 -3.553632426464131 -0.3949377934152965 -0.13781994478467177 -0.65237367238955601 2.4036839110162957 12.672779798313135 0.048106915598384412 0.073261117006986176 0.51861739577600163 -0.3494723809262808 1.8045455485580537 0.69699874588750943 0.34065072421864911 -0.34462428443120741 0.51661373579633119 1.0000000180025095e-35
decision_type=2 2 2 2 2 2 2 2 2 2 2 2 2 2 2 2 2 2 2 2 2 2 2 2 2 2 2 2 2 2
left_child=2 3 6 4 7 18 14 15 10 24 22 -11 25 -6 17 -2 -17 -1 -3 -16 -7 -18 26 28 -5 27 -4 -10 -9 -14
right_child=1 5 8 9 13 20 -8 23 12 11 -12 -13 29 -15 19 16 21 -19 -20 -21 -22 -23 -24 -25 -26 -27 -28 -29 -30 -31
leaf_value=-0.020774022021214478 0.0034047024832246637 0.028303033510570997 0.0022973505725210818 0.0040628681565155677 0.015613404261550449 0.023769766278181528 -0.014578474704133952 -0.0043386007269229877 -0.0053138538129286657 -0.0061264439615945432 0.0099844574056092705 -0.015090974268073647 -0.0060379525148791489 0.0089324086823523892 -0.027626972867898187 0.004810264227285083 0.0088106844608913746 -0.033409660967805337 0.038246573206105847 -0.018562568786652075 0.013977512729299419 0.01704714236651907 -0.013475148989395662 0.0020752665302291419 -0.01143775221037989 -0.018471816482407779 -0.0043541872345647867 -0.010705204880024535 0.0042373349248255431 0.0032623605479472385
leaf_weight=56 557 91 159 103 290 167 441 260 213 309 63 143 145 416 98 430 364 118 163 228 85 101 44 803 24 58 292 546 74 67
leaf_count=56 557 91 159 103 290 167 441 260 213 309 63 143 145 416 98 430 364 118 163 228 85 101 44 803 24 58 292 546 74 67
internal_value=-1.76081e-11 0.00640404 -0.0110956 0.00363508 0.00545961 0.0276036 -0.0196328 0.00376425 -0.00603353 -0.00674803 -0.00155919 -0.00896257 -0.00845985 0.0116767 -0.0240908 0.00612513 0.00781817 -0.029343 0.0346841 -0.0212875 0.0204668 0.0105997 -0.00302838 0.00074931 0.00113362 -0.00985099 -0.00200919 -0.00919222 -0.00243854 -0.0030987
internal_weight=6908 4380 2528 3874 3295 506 941 2589 1587 579 558 452 1029 706 500 1452 895 174 254 326 252 465 495 1137 127 817 451 759 334 212
internal_count=6908 4380 2528 3874 3295 506 941 2589 1587 579 558 452 1029 706 500 1452 895 174 254 326 252 465 495 1137 127 817 451 759 334 212
is_linear=0
shrinkage=0.05


Tree=24
num_leaves=31
num_cat=0
split_feature=5 10 15 15 0 20 15 5 0 51 8 0 15 55 53 27 15 10 0 53 23 47 26 17 55 6 72 38 70 12
split_gain=177.201 92.8164 39.4394 26.6287 10.2389 9.2305 7.65418 7.29283 6.21957 3.85912 3.41636 3.02835 2.99889 2.79231 2.67684 2.54123 2.172 2.09077 2.08492 1.97844 1.97178 1.90262 1.84561 1.79026 1.67548 1.6442 1.5715 1.45804 1.46062 1.45218
threshold=-0.076196070843066857 1.5452123515770657 -0.6409998297382542 -0.046996582633319767 0.81740951233458359 -1.7826517404668434 -1.4753776356031023 0.84663420075482321 -0.41651053294475388 -0.63236425005963837 -0.037768693965235134 1.8045455485580537 0.2877240143113326 0.48246985630381389 2.4107410678257253 -0.060810509336830895 0.01106262446661605 2.5786956088176902 1.0000000180025095e-35 0.014531554156529321 -0.36549148269209086 0.51861739577600163 0.0016187367348429649 -0.0070531561968247653 -0.012294254530474837 0.34065072421864911 1.0000000180025095e-35 0.13653525042943823 1.0000000180025095e-35 -1.6649195180100733
decision_type=2 2 2 2 2 2 2 2 2 2 2 2 2 2 2 2 2 2 2 2 2 2 2 2 2 2 2 2 2 2
left_child=2 3 6 7 9 17 14 15 10 -5 21 12 -6 16 22 -2 -10 -3 23 -20 -7 25 -1 -11 -17 -4 -8 -26 -29 -16
right_child=1 5 8 4 11 20 26 -9 13 18 -12 -13 -14 -15 29 24 -18 -19 19 -21 -22 -23 -24 -25 27 -27 -28 28 -30 -31
leaf_value=-0.023293704058171955 0.0091648050409051732 0.027273764205400394 0.0021824830992194185 0.0093984176546135657 -0.0088604268028542842 0.010873357587458813 -0.016305050200750845 0.014752601693776813 -0.0079840155143440696 0.0060604779732196176 0.0094852345237981476 -0.017899138421104428 0.0035711073847074486 -0.011853125224838092 -0.034895917350205329 0.0026269800454434954 -0.0017746464805438733 0.036575332034018734 -0.0049072716196914591 0.00058651020919083723 0.021725978048040939 -0.012801391542465849 -0.015885603260039717 0.00060232453280676919 0.010026681200198487 -0.0041364778903885497 -0.010221481981708178 0.0030700576464455153 0.0090999451919686891 -0.024175745350144367
leaf_weight=245 519 99 159 126 223 53 263 299 507 204 63 68 62 327 59 463 195 155 287 382 199 44 128 570 207 292 178 317 147 68
leaf_count=245 519 99 159 126 223 53 263 299 507 204 63 68 62 327 59 463 195 155 287 382 199 44 128 570 207 292 178 317 147 68
internal_value=-4.93402e-12 0.00608384 -0.0105408 0.00345333 -0.00072429 0.0262234 -0.0186512 0.00756674 -0.00573185 0.00100671 -0.00148123 -0.00841815 -0.00615602 -0.00803686 -0.0228862 0.00626694 -0.00625919 0.0329499 0.000273959 -0.00177031 0.0194435 -0.00287697 -0.0207515 0.00204091 0.00494067 -0.00190873 -0.0138496 0.00653714 0.00498039 -0.029156
internal_weight=6908 4380 2528 3874 1922 506 941 1952 1587 1569 558 353 285 1029 500 1653 702 254 1443 669 252 495 373 774 1134 451 441 671 464 127
internal_count=6908 4380 2528 3874 1922 506 941 1952 1587 1569 558 353 285 1029 500 1653 702 254 1443 669 252 495 373 774 1134 451 441 671 464 127
is_linear=0
shrinkage=0.05


Tree=25
num_leaves=31
num_cat=0
split_feature=78 39 20 0 15 15 45 13 5 52 15 10 7 0 15 0 16 41 0 52 49 70 41 58 51 26 38 19 57 17
split_gain=160.152 83.8184 32.9153 24.2138 12.7745 7.77866 6.62999 6.6022 4.62886 4.38654 3.8638 3.42548 3.17768 3.10301 3.23229 2.66252 2.33146 2.13326 2.37355 2.04096 1.91772 1.80103 1.73817 1.7071 1.69793 1.68667 1.63771 1.45598 1.42306 1.40524
threshold=12.870626208505564 -1.4023358871880043 -0.5561384294850179 0.57062550327871608 -0.25319865240628986 -0.24168451413082542 -1.8533566428733994 0.84485189745288802 -1.5546815424902094 0.16416630107373664 -0.032112243225757807 -0.080959774784999147 0.49891221611875197 1.8045455485580537 0.2877240143113326 -0.91007855105648872 -0.8096022511942822 0.025843206049043502 2.2981135666697887 -0.032340971763462248 0.23078658190906334 1.0000000180025095e-35 0.068620642347312563 0.50978290686761973 -1.3917695942872934 -0.10860405206210035 0.11805230155930126 0.77880545103322396 0.30529940551914719 -0.71437931633793139
decision_type=2 2 2 2 2 2 2 2 2 2 2 2 2 2 2 2 2 2 2 2 2 2 2 2 2 2 2 2 2 2
left_child=2 6 8 4 9 20 29 10 -1 27 19 15 -12 14 21 -7 -8 18 -10 -6 22 -5 28 -14 -17 -9 -21 -3 -4 -2
right_child=1 3 5 13 7 11 16 25 17 -11 12 -13 23 -15 -16 24 -18 -19 -20 26 -22 -23 -24 -25 -26 -27 -28 -29 -30 -31
leaf_value=-0.025593899160119407 0.033910998376086354 0.0067783726879528192 -0.0096818279788902645 -0.0067628267748057512 0.0019364950422017951 0.00033898613081139752 0.0037336953554768116 0.032731829173862935 -0.016443647903680896 0.015140568311805318 -0.00046606517721512391 0.0028398067587782076 0.010294854822769491 -0.014745679228401901 0.0042917314585513219 -0.02035846421071752 0.021663471486553856 -0.0063394668685315654 -0.027791959615596745 0.010416510123746727 -0.0074376576363145682 0.0067791663934118479 -0.019005082208119955 0.0023276023875994901 -0.0062525881226179088 0.013418283026952011 0.0050034208662890316 0.013638211843777406 -0.017476696797336141 0.022593674482777715
leaf_weight=242 192 591 267 441 407 166 20 20 314 277 1022 148 113 82 91 22 194 43 54 185 232 26 96 166 704 26 571 89 75 32
leaf_count=242 192 591 267 441 407 166 20 20 314 277 1022 148 113 82 91 22 194 43 54 185 232 26 96 166 704 26 571 89 75 32
internal_value=-3.03485e-12 0.00548941 -0.0105583 0.00327199 0.00492149 -0.00691168 0.0262815 0.00304743 -0.0201078 0.00983674 0.00269705 -0.00420495 0.000825044 -0.00566367 -0.00432903 -0.00537381 0.0199878 -0.0168775 -0.0181089 0.0047912 -0.0111132 -0.00600888 -0.01306 0.00555448 -0.00668004 0.0218155 0.00632805 0.0076762 -0.0113912 0.0322942
internal_weight=6908 4545 2363 4107 3467 1710 438 2510 653 957 2464 1040 1301 640 558 892 214 411 368 1163 670 467 438 279 726 46 756 680 342 224
internal_count=6908 4545 2363 4107 3467 1710 438 2510 653 957 2464 1040 1301 640 558 892 214 411 368 1163 670 467 438 279 726 46 756 680 342 224
is_linear=0
shrinkage=0.05


Tree=26
num_leaves=31
num_cat=0
split_feature=78 39 20 0 20 15 45 0 18 15 41 10 15 11 39 40 15 38 77 44 0 49 39 44 55 4 18 72 59 29
split_gain=144.538 75.6461 29.7061 21.9447 10.7968 7.02024 5.98357 5.6282 5.27615 4.30414 4.28847 3.0915 3.02135 2.41017 2.28079 2.31675 2.10974 2.09719 2.04222 2.04185 1.79842 1.75066 1.62051 1.61818 1.59693 1.57193 1.51989 1.50638 1.47016 1.35018
threshold=12.870626208505564 -1.4023358871880043 -0.5561384294850179 1.0000000180025095e-35 -0.57675282560038721 -0.24168451413082542 -1.8533566428733994 0.81740951233458359 -0.26644197018159987 -3.553632426464131 -1.1641860590687523 -0.080959774784999147 -0.0049280062286855336 0.4889299809286386 0.7973255996225127 0.19949655963219468 -0.79855009336346561 0.13653525042943823 13.198063363090254 -0.96899924292756145 2.0513295576139217 -0.82488229389705603 -0.72213463260036936 0.3028454527009074 0.68439190814388529 -0.84805724937983773 -2.5391071238103007 1.0000000180025095e-35 -1.4370042623043335 -2.3752904099386467
decision_type=2 2 2 2 2 2 2 2 2 2 2 2 2 2 2 2 2 2 2 2 2 2 2 2 2 2 2 2 2 2
left_child=2 6 9 4 19 21 29 10 28 25 -5 13 22 24 23 -16 -8 -12 26 -3 -20 -4 -10 -11 -7 -1 -9 -23 -6 -2
right_child=1 3 5 7 8 11 16 18 12 14 17 -13 -14 -15 15 -17 -18 -19 20 -21 -22 27 -24 -25 -26 -27 -28 -29 -30 -31
leaf_value=-0.014309204793111844 0.034775237092431986 0.02255001843198022 -0.01856119317197872 0.0084299309252969575 -0.0029716511360473106 -0.0049843916950890093 0.022560547678632307 -0.017810674785739847 0.01324469055592393 -0.016042817431026944 0.0022351379451720278 0.0026978164652875325 -0.00079026042354014944 -0.00078437712150606232 -0.030818651442609309 -0.016169839272783561 0.012088778159064433 -0.0034929959390606114 0.00063597843793497706 0.012513586791129246 -0.015652301060035827 -0.01193623908731422 0.0039118349267004918 -0.0035763085986088429 -0.010287712828945727 -0.028802888512052593 -0.0078318702689968815 -0.0069193449418876261 0.008947790376655532 0.027000328315958635
leaf_weight=22 106 67 62 128 27 447 141 45 48 370 244 148 377 237 53 55 73 463 111 208 20 342 1500 28 208 125 251 266 618 118
leaf_count=22 106 67 62 128 27 447 141 45 48 370 244 148 377 237 53 55 73 463 111 208 20 342 1500 28 208 125 251 266 618 118
internal_value=2.25192e-11 0.00521494 -0.0100304 0.00310839 0.00554262 -0.00656609 0.0249674 -0.00237923 0.00453505 -0.0191024 8.56012e-06 -0.0039947 0.00322367 -0.00510512 -0.0169144 -0.0233586 0.0189884 -0.0015161 -0.00704855 0.0149588 -0.00185078 -0.0105575 0.00420123 -0.0151658 -0.0066685 -0.0266338 -0.00934892 -0.00974135 0.00844884 0.0306795
internal_weight=6908 4545 2363 4107 2845 1710 438 1262 2570 653 835 1040 1925 892 506 108 214 707 427 275 131 670 1548 398 655 147 296 608 645 224
internal_count=6908 4545 2363 4107 2845 1710 438 1262 2570 653 835 1040 1925 892 506 108 214 707 427 275 131 670 1548 398 655 147 296 608 645 224
is_linear=0
shrinkage=0.05


Tree=27
num_leaves=31
num_cat=0
split_feature=5 10 15 0 5 15 55 15 54 18 54 15 11 43 17 0 18 7 72 69 12 38 51 31 7 45 13 29 14 13
split_gain=130.46 68.9041 29.1693 20.0384 9.40011 8.13785 6.90246 4.87802 3.49319 3.44067 2.92711 2.83379 2.56467 2.52286 2.67259 2.3921 2.25369 2.00337 1.96647 1.8827 1.88136 1.86236 1.65381 1.53325 1.51468 2.85495 1.49224 1.44177 1.42538 1.42394
threshold=-0.076196070843066857 1.5452123515770657 -1.2076708732713606 0.57062550327871608 0.64322697773276494 -0.14434994669525761 5.6733331394034456 -0.046996582633319767 -1.7698216581687249 -0.044126404817366689 -0.16808420045834946 -3.553632426464131 0.4889299809286386 0.82856352026694424 -0.37562100552809746 1.3109775304463187 -0.32084875433640242 -0.3494723809262808 1.0000000180025095e-35 1.0000000180025095e-35 0.20020410945714065 0.089224223094643937 -1.3917695942872934 0.24052575887994382 -0.3949377934152965 -0.13781994478467177 0.97735126514851922 -2.3752904099386467 0.073261117006986176 0.51661373579633119
decision_type=2 2 2 2 2 2 2 2 2 2 2 2 2 2 2 2 2 2 2 2 2 2 2 2 2 2 2 2 2 2
left_child=2 3 11 4 7 8 13 24 -4 20 -5 19 22 14 -3 -12 -6 29 -10 -1 -7 23 -11 -13 -2 26 -26 -8 -27 -9
right_child=1 6 5 10 16 9 27 17 18 12 15 21 -14 -15 -16 -17 -18 -19 -20 -21 -22 -23 -24 -25 25 28 -28 -29 -30 -31
leaf_value=-0.013816236395921026 0.0030393134041690247 0.019186926899341549 -0.025963932792505914 0.0010820420396580237 0.012861609470312639 0.0020463402698035625 0.033516171518887319 -0.0037407283205599024 -0.01105539086401159 -0.020017426051199438 -0.0050347847245598943 -0.014848377626633855 -6.2178816872222927e-05 0.034734946163371208 0.0077479706719339667 -0.012856134311035536 0.0071468730962644866 0.0021370260297663918 -0.0063751181830736933 -0.026790831611565442 0.018480558347489153 -0.018896350878954152 -0.0053981880947822219 -0.0025415827099042124 0.0024885727014855754 0.0078095746068988009 0.010930562275938964 0.025288766565873234 0.014703574622197464 0.0039958590920070643
leaf_weight=35 514 205 31 127 300 102 107 303 486 20 309 99 275 20 68 143 406 876 417 139 21 278 591 34 369 291 61 106 101 74
leaf_count=35 514 205 31 127 300 102 107 303 486 20 309 99 275 20 68 143 406 876 417 139 21 278 591 34 369 291 61 106 101 74
internal_value=-2.28262e-12 0.00522015 -0.00904441 0.00295368 0.00446109 -0.00609737 0.0225726 0.00306651 -0.00946063 -0.0029841 -0.0056248 -0.0188326 -0.00407198 0.0175935 0.0163377 -0.00750924 0.00957523 0.000825449 -0.00889407 -0.024181 0.00485218 -0.0165683 -0.00587672 -0.0117023 0.00516834 0.00649963 0.00368616 0.0294218 0.00958583 -0.00222214
internal_weight=6908 4380 2528 3874 3295 1943 506 2589 934 1009 579 585 886 293 273 452 706 1253 903 174 123 411 611 133 1336 822 430 213 392 377
internal_count=6908 4380 2528 3874 3295 1943 506 2589 934 1009 579 585 886 293 273 452 706 1253 903 174 123 411 611 133 1336 822 430 213 392 377
is_linear=0
shrinkage=0.05


Tree=28
num_leaves=31
num_cat=0
split_feature=78 5 20 0 20 0 0 17 52 78 5 65 53 50 53 11 29 45 11 48 41 0 43 7 0 15 4 40 55 77
split_gain=117.834 61.9177 24.5207 18.1619 9.04781 5.76094 4.63984 4.60906 4.34007 4.07452 3.5421 3.21011 3.16496 2.34949 2.10571 2.08424 2.02604 2.00674 1.96045 1.95886 1.91054 1.79888 1.69707 1.59351 1.56692 1.55076 2.59579 1.47758 1.4099 1.30227
threshold=12.870626208505564 1.7812455720752609 -0.5561384294850179 1.0000000180025095e-35 -0.4664524569201014 1.0000000180025095e-35 1.5577615395021862 -0.77687404881566391 0.33350286237376453 13.100069361654059 -1.428574337772597 -0.70500521073670541 0.22700914789019863 -0.011227801859732114 -0.022076688200220834 0.59157694556644891 -1.3067583652131514 -1.8533566428733994 0.3223176251030902 0.30212236862930558 0.025843206049043502 1.8045455485580537 0.27380337609468303 -0.13396632572834652 0.81740951233458359 -0.47659066589488136 -0.26100651840899214 0.97822411096165995 1.1690034707543344 12.672779798313135
decision_type=2 2 2 2 2 2 2 2 2 2 2 2 2 2 2 2 2 2 2 2 2 2 2 2 2 2 2 2 2 2
left_child=2 3 10 4 16 12 8 17 11 13 -1 -5 -4 -6 -13 23 -2 -3 28 -7 21 -12 -21 -15 -9 -11 -27 -8 -14 -18
right_child=1 7 5 6 9 19 27 24 -10 25 20 14 18 15 -16 -17 29 -19 -20 22 -22 -23 -24 -25 -26 26 -28 -29 -30 -31
leaf_value=-0.021616228433410555 0.02690059814764106 0.029198659223038704 0.0038973780866660233 0.016278418864716183 0.0042582340096160159 -0.0075878020553575027 -0.01350809666586833 0.016935455009289498 0.0052647289947460978 0.0086352011707611382 -0.012729028718130003 -0.0062512059487635279 -0.0059620250427387025 -0.0036198966807345504 -0.0011765832405646387 0.004154350318182308 0.0048213428486201726 0.020977282281272297 -0.0012621504620538701 -0.016585457565268687 -0.0035249918870823948 -0.020400119369652862 -0.0043490255511888128 0.0036797053603100055 0.0014632150414399803 0.0022200454052250219 0.0074893001442222981 -0.0022585455537773671 -0.019299463661653655 0.013021275779680798
leaf_weight=275 23 192 143 22 556 741 108 90 219 375 224 325 351 351 551 193 59 121 296 121 38 116 37 95 20 472 463 40 21 270
leaf_count=275 23 192 143 22 556 741 108 90 219 375 224 325 351 351 551 193 59 121 296 121 38 116 37 95 20 472 463 40 21 270
internal_value=2.00946e-11 0.00470862 -0.00905657 0.00283911 0.00504756 -0.00590909 -0.00214866 0.0229264 -0.00104641 0.0039928 -0.0172988 -0.00258554 -0.00285355 0.00188147 -0.00305929 -0.000186576 0.0125537 0.0260204 -0.00429874 -0.00866553 -0.0141578 -0.0153462 -0.01372 -0.00206505 0.0141223 0.00591878 0.00482931 -0.0104677 -0.00671494 0.0115508
internal_weight=6908 4545 2363 4122 2857 1710 1265 423 1117 2505 653 898 811 1195 876 639 352 313 668 899 378 340 158 446 110 1310 935 148 372 329
internal_count=6908 4545 2363 4122 2857 1710 1265 423 1117 2505 653 898 811 1195 876 639 352 313 668 899 378 340 158 446 110 1310 935 148 372 329
is_linear=0
shrinkage=0.05


Tree=29
num_leaves=31
num_cat=0
split_feature=78 10 15 0 5 53 22 0 0 13 53 8 50 0 7 1 17 43 40 41 7 47 0 46 38 17 57 10 55 57
split_gain=106.449 54.2366 26.1465 15.8856 7.21224 6.64922 6.10481 4.3949 4.35503 3.06432 2.85097 2.56693 2.43258 2.78725 2.42022 2.10667 1.95851 1.82682 2.08666 1.74821 1.73234 1.6445 1.62684 2.33163 1.57603 1.50167 1.4161 1.4071 1.3664 1.2282
threshold=12.953479659361451 1.540379939025833 -0.42160932532175638 0.57062550327871608 0.77569335778033188 2.2028912859074543 0.51781794843271434 -0.66329454200062132 -0.66329454200062132 1.8281582930012354 -0.0098084292441567075 0.24853981612699394 0.059299619420247626 1.8045455485580537 -0.3949377934152965 -0.48941279000072152 -1.3370039038851453 0.66964471044077312 0.06134236795276804 -1.4545470723737968 -0.3949377934152965 0.55548955566366109 2.5448975757256567 0.080926377777804939 0.13653525042943823 -0.18523854346725324 -0.17944706957666681 -0.57412706649997414 0.069284054575387555 0.33410214067394656
decision_type=2 2 2 2 2 2 2 2 2 2 2 2 2 2 2 2 2 2 2 2 2 2 2 2 2 2 2 2 2 2
left_child=2 3 5 4 8 9 19 10 20 17 -4 15 13 28 -10 27 -8 18 -1 -3 -2 26 23 -7 -16 -6 -12 -9 -5 -13
right_child=1 6 7 12 25 22 16 11 14 -11 21 29 -14 -15 24 -17 -18 -19 -20 -21 -22 -23 -24 -25 -26 -27 -28 -29 -30 -31
leaf_value=-0.0084703578911125427 0.0033160797192523226 0.0176056468138291 0.013938279439871377 -0.0066335143499217297 0.013528299206908987 -0.030392820830456913 0.029799518784729102 -0.0069002352627770356 -0.002402719112021624 -0.017691866033872031 -0.001396363968864626 -0.0024406780081598842 0.0031648221961521092 -0.016631851259008446 0.0048336488709483797 -0.0081747483284374586 0.021529299073985646 -0.0061953771203878301 -0.014931313447590312 0.008480201928702356 0.0073048168393877698 -0.011440234293695541 -0.027078050430481362 -0.015462283884220713 0.001060643569940385 0.0077634545922800188 0.0057896437114462835 0.00036380879883654419 -6.3724788482448903e-05 0.006706863237460229
leaf_weight=246 489 124 37 304 164 32 118 120 327 164 278 221 78 58 439 606 182 210 254 91 614 32 73 143 749 363 91 150 107 44
leaf_count=246 489 124 37 304 164 32 118 120 327 164 278 221 78 58 439 606 182 210 254 91 614 32 73 143 749 363 91 150 107 44
internal_value=-3.6696e-12 0.00497325 -0.0077462 0.00285293 0.00422073 -0.0135821 0.0201737 -0.00359933 0.00314646 -0.0115318 0.000658213 -0.00523369 -0.00501133 -0.00637112 0.00140641 -0.00653808 0.0247823 -0.0101089 -0.0117525 0.0137432 0.00553646 -0.00056713 -0.020808 -0.0181924 0.00245488 0.00955745 0.000375795 -0.00286466 -0.00492313 -0.000921841
internal_weight=6908 4207 2701 3692 3145 1122 515 1579 2618 874 438 1141 547 469 1515 876 300 710 500 215 1103 401 248 175 1188 527 369 270 411 265
internal_count=6908 4207 2701 3692 3145 1122 515 1579 2618 874 438 1141 547 469 1515 876 300 710 500 215 1103 401 248 175 1188 527 369 270 411 265
is_linear=0
shrinkage=0.05


Tree=30
num_leaves=31
num_cat=0
split_feature=78 5 20 0 5 18 72 70 15 78 5 20 77 0 59 77 51 17 78 19 0 45 18 11 16 48 60 22 4 37
split_gain=96.1193 50.8661 19.9389 13.8495 7.69991 6.07202 4.80288 3.23383 3.10584 2.29863 2.19739 2.16506 2.04507 1.89375 2.16076 1.73904 1.88823 1.7239 1.71033 1.66852 1.50905 1.4917 1.4833 1.48242 1.46846 1.42908 1.42375 1.37327 1.22814 1.22677
threshold=12.864252000785358 1.1025288802822135 -0.5561384294850179 0.57062550327871608 1.9983350206414141 -0.26644197018159987 1.0000000180025095e-35 1.0000000180025095e-35 -3.553632426464131 13.584584939649774 -1.0623019735048327 -1.0797358649939428 13.198063363090254 -0.1697265238888864 -0.19604946198866691 12.672779798313135 0.56234768006279701 -1.3370039038851453 12.965087818237562 -0.16364447720524358 2.0513295576139217 0.69699874588750943 -2.5391071238103007 0.63067915699486299 -0.8096022511942822 -0.65825262653318173 6.2430081868065921 0.38942402825941685 -0.83895568765935946 -0.44868199866569186
decision_type=2 2 2 2 2 2 2 2 2 2 2 2 2 2 2 2 2 2 2 2 2 2 2 2 2 2 2 2 2 2
left_child=2 3 8 5 24 11 10 9 28 18 -4 -2 22 14 -8 16 -10 -6 23 -13 -14 -16 -5 -7 -3 -21 -26 -17 -1 -9
right_child=1 4 6 12 17 7 13 29 15 -11 -12 19 20 -15 21 27 -18 -19 -20 25 -22 -23 -24 -25 26 -27 -28 -29 -30 -31
leaf_value=-0.01141228027155866 0.01572621531535073 -0.00073025778227020065 -0.01361623601355119 -0.015088585980443492 0.028602984877286759 -0.0041646168338047573 -0.0040617742518578954 0.01740125366659076 -0.024603743904006128 0.0074970381532404222 -0.0069997195336201981 -0.0056798975931963433 0.0010998205583296675 -0.0054161165719465998 0.0035430436584987937 -0.01029574593477134 -0.012038922672918825 0.020680449354329281 0.0018066165412268355 0.00096108694763875804 -0.013385554356500507 -0.010407269887980962 -0.0055014126520444946 0.0043281132060766338 0.012308689689040203 0.0078507855023812675 0.026149022616446017 -0.017000830648134329 -0.023992216935561552 0.0062155837709485101
leaf_weight=23 70 20 172 45 113 232 296 27 67 157 464 27 178 531 219 280 54 175 1795 86 20 21 390 66 262 603 20 105 124 266
leaf_count=23 70 20 172 45 113 232 296 27 67 157 464 27 178 531 219 280 54 175 1795 86 20 21 390 66 262 603 20 105 124 266
internal_value=1.43268e-12 0.00424312 -0.00819809 0.00220349 0.0179398 0.00349255 -0.00534981 0.00230537 -0.0156263 0.00166194 -0.00878909 0.00733353 -0.0045758 -0.00329978 -0.00120319 -0.0137677 -0.0189963 0.0237889 0.00122424 0.00651302 -0.000363349 0.00232239 -0.00649319 -0.00228368 0.0123618 0.00699082 0.0132903 -0.0121244 -0.0220239 0.00724635
internal_weight=6908 4552 2356 3962 590 3329 1703 2543 653 2250 636 786 633 1067 536 506 121 288 2093 716 198 240 435 298 302 689 282 385 147 293
internal_count=6908 4552 2356 3962 590 3329 1703 2543 653 2250 636 786 633 1067 536 506 121 288 2093 716 198 240 435 298 302 689 282 385 147 293
is_linear=0
shrinkage=0.05


Tree=31
num_leaves=31
num_cat=0
split_feature=78 5 15 0 5 15 18 70 7 5 18 64 54 46 44 77 13 17 72 77 13 16 62 11 7 18 18 45 46 37
split_gain=86.7477 45.9067 18.1131 12.4991 6.94917 5.55476 5.48 2.91853 2.37688 2.14545 2.02263 2.11477 1.99169 1.90465 1.9013 1.84568 1.75194 1.55582 1.46416 1.40661 1.39975 1.37996 1.36747 1.34352 1.44683 1.33868 1.26937 1.14801 1.13263 1.10716
threshold=12.864252000785358 1.1025288802822135 -1.3513108516447947 0.57062550327871608 1.9983350206414141 -0.24168451413082542 -0.26644197018159987 1.0000000180025095e-35 -0.76229832632654326 0.42747715818060389 -0.84079136260197174 2.2629346004788133 -1.7698216581687249 -0.18008546620469282 0.11865993627192419 13.198063363090254 4.140131885662802 -1.3370039038851453 1.0000000180025095e-35 12.987965068792088 0.43832689661868285 -2.3780958830493923 2.5481557960703163 0.39407636657496531 -0.3949377934152965 -2.5391071238103007 -0.89605102075293208 0.31566580863343713 0.21783439818021499 -0.44868199866569186
decision_type=2 2 2 2 2 2 2 2 2 2 2 2 2 2 2 2 2 2 2 2 2 2 2 2 2 2 2 2 2 2
left_child=2 3 16 6 20 12 10 9 -7 13 -2 -12 -4 -8 28 25 19 -6 27 26 -3 -17 -22 24 -15 -5 -1 -14 -10 -9
right_child=1 4 5 15 17 8 7 29 14 -11 11 -13 18 23 -16 21 -18 -19 -20 -21 22 -23 -24 -25 -26 -27 -28 -29 -30 -31
leaf_value=-0.016873920202623446 0.011906442189768026 0.0086625591006006565 -0.019323764052014889 -0.014334156823654971 0.027172836463535785 -0.0067041289999624793 -0.002437666457387664 0.016531190703864451 0.0022516889299875531 0.0043705919362471311 0.0064786435265948607 -0.0047752575752221874 -0.012021173841524943 -0.0022153720680163258 -0.0049458582388069777 -0.0098523257882334302 -0.025788914421129794 0.019646427040653572 -0.0054764922191523234 -0.0030748156101807304 0.010707259969129948 0.0014875213241103632 0.020744448052002835 0.0044056777363252484 0.0019165220553186075 -0.0052263420704865638 -0.0096009336247987742 -0.0067331109366461847 -0.0028440102997810543 0.0059048045575846326
leaf_weight=387 164 166 41 45 113 310 373 27 301 527 577 45 259 299 256 32 42 175 325 23 71 166 65 324 727 390 71 170 171 266
leaf_count=387 164 166 41 45 113 310 373 27 301 527 577 45 259 299 256 32 42 175 325 23 71 166 65 324 727 390 71 170 171 266
internal_value=1.28196e-11 0.00403097 -0.00778818 0.00209332 0.0170428 -0.00544639 0.00331793 0.0021901 -0.00303756 0.00157885 0.00696685 0.00566445 -0.00859151 0.00072496 -0.00147625 -0.00434701 -0.0159957 0.0225995 -0.00800792 -0.0151405 0.0117437 -0.000345181 0.0155044 0.00159878 0.000712393 -0.00616853 -0.0157464 -0.00992567 0.000405578 0.00688403
internal_weight=6908 4552 2356 3962 590 1833 3329 2543 1038 2250 786 622 795 1723 728 633 523 288 754 481 302 198 136 1350 1026 435 458 429 472 293
internal_count=6908 4552 2356 3962 590 1833 3329 2543 1038 2250 786 622 795 1723 728 633 523 288 754 481 302 198 136 1350 1026 435 458 429 472 293
is_linear=0
shrinkage=0.05


Tree=32
num_leaves=31
num_cat=0
split_feature=78 10 15 15 53 55 5 0 1 8 53 40 20 43 17 59 7 63 56 58 0 46 56 0 50 1 7 62 57 77
split_gain=78.3107 40.254 19.4144 12.4144 5.16603 4.66179 4.50126 4.15999 3.67576 3.13105 2.94817 2.34293 2.31839 2.23889 1.94512 1.93916 1.97166 1.61261 1.50437 1.48699 1.38787 1.9959 1.36328 1.27596 1.21947 1.1681 1.33188 1.16797 1.1643 1.05848
threshold=12.953479659361451 1.540379939025833 -0.42160932532175638 -0.0049280062286855336 2.2426901130882628 5.6733331394034456 0.84663420075482321 1.3109775304463187 -0.52763806370097888 0.24853981612699394 0.010195265050980715 0.289793298175336 -0.91734282484211971 0.82856352026694424 -0.56103808604450922 -1.2417151857519759 -0.3949377934152965 1.0660730568078132 -0.47344699223317693 -0.065609955820416524 2.5448975757256567 0.080926377777804939 -0.0021672378602686795 -0.91007855105648872 -0.10660502888304572 0.69751875508835903 -0.76229832632654326 0.83939724433204843 0.33410214067394656 12.800877080434978
decision_type=2 2 2 2 2 2 2 2 2 2 2 2 2 2 2 2 2 2 2 2 2 2 2 2 2 2 2 2 2 2
left_child=2 3 4 6 12 13 15 11 10 25 -4 -5 17 14 -3 -2 24 -1 -12 -9 21 -6 -14 -18 -17 26 -10 -25 -11 -24
right_child=1 5 8 7 20 -7 -8 19 9 28 18 -13 22 -15 -16 16 23 -19 -20 -21 -22 -23 29 27 -26 -27 -28 -29 -30 -31
